-2.318765994206168357e-01 -5.768185193272296063e-02 9.703404108615827639e-02 -3.327410125720876681e-03 -2.331096625398493827e-01 -3.331207654196148837e-01 2.505851320963418116e-01 3.699433313712823246e-01 -1.396298359890546237e-01 3.088957377792582171e-01 -2.590446434803513331e-01 6.194890917492888727e-02 3.082924416131217066e-02 1.052419745416825342e-01 -1.031553254082151344e-01 1.490743545728813180e-01 8.566342397454260182e-02 -8.483812513528948829e-02 1.418171932466148200e-01 -6.435294498892549231e-02 2.896175170243975860e-01 -2.961058196483628002e-01 4.256928329256769450e-01 1.960740881625229470e-01 -2.142420349882979691e-01 -2.454547095633294040e-01 1.913193572939027309e-01 -1.962180095719161799e-01 1.937943098068105885e-01 -3.082645863625328442e-01 2.116836592604382228e-01 2.568972408996026968e-01 2.048862178485792163e-01 1.843901672044973294e-01 -2.085329904958598546e-01 -2.875097713190256088e-01 4.485910332874250561e-01 3.623881737218072052e-01 2.218892939354602800e-01 3.943311395872904912e-01 -2.285536403610226308e-03 -2.282240958553976296e-01 -6.931994580725077404e-02 2.635600975876185026e-01 -1.630275911471729122e-01 2.556954390309316150e-01 4.430798701280475038e-02 8.508398834968242119e-02
-1.461711800991882526e-01 1.165587427899065220e-01 -1.992797738359592397e-01 -2.038568327498079535e-01 -1.879487942015843904e-01 -2.620960686322081346e-01 -2.397882142986722254e-01 2.646234786083015780e-02 -1.501162178990434748e-01 -1.766054071008923976e-01 2.685539110337799573e-01 1.603103076467181642e-01 1.082122733777598628e-01 2.256992173454075989e-01 1.169645028624449884e-01 -2.928850317942718329e-01 -3.500513585601620625e-01 -1.222159444585257659e-01 -1.658331383293400463e-01 -1.244600067114065844e-01 2.015731817826481032e-01 -3.027943861562786831e-01 8.334283456589082484e-02 1.433489360968877580e-01 1.810857667140568228e-01 3.164832003392788473e-01 -1.967746337719025462e-01 1.071333813563258991e-01 -9.521020506919629367e-03 -1.917920559569517569e-01 5.888675425377285638e-02 -8.006596018362339973e-02 1.422282971017190534e-01 2.748976277633119816e-02 1.688350712363493322e-01 9.500845493121266860e-03 1.055405890322176216e-01 1.993394806109743400e-01 3.514745629243590797e-01 1.327065404172015073e-01 -7.443491195794649240e-02 -5.818515327471406040e-02 -1.166383715901086193e-01 9.046585000803553100e-02 2.519528002727683957e-01 -1.202320155664266393e-01 -3.041106180629308264e-01 1.083927477015061425e-01
-1.459988628548819778e-01 -2.968936590050406665e-01 3.304080197396240259e-01 1.147537042746116370e-01 -1.559262516377328718e-02 2.670488954142783977e-01 1.777123920578607685e-01 5.904546255875448707e-02 -2.645972848761007912e-01 -5.098926313969404794e-02 8.567591007798411318e-02 -2.304346467540207277e-01 1.587610798523832190e-01 -1.978167730870551422e-01 -1.988430094219971189e-01 -2.964891911304056923e-02 -1.060996894393917561e-01 -1.244855390117519389e-01 3.161006554389222956e-01 4.101414012785835062e-01 3.723991803738732065e-01 2.388348544287490494e-01 4.193315454097204520e-01 5.434148950213028850e-02 3.942055613604183301e-02 3.068007896007377000e-01 3.485922829226583697e-01 1.332527771938000483e-01 -1.703442755862911717e-01 -3.011090415556874067e-01 -1.526733199496860538e-01 -2.183433822085202938e-02 1.007563334247300324e-01 2.272664804128877725e-01 1.375393488327782687e-01 -2.660850921024666017e-03 -2.358802281085119468e-01 -2.249888458712404615e-01 -2.668036650705039592e-01 1.394089362427104184e-01 -4.594415543555001313e-02 1.732355093443574412e-01 2.421751649484800428e-01 1.936372651983053403e-02 -1.431822319546108280e-01 -2.813115066307181333e-01 3.311654268483855273e-02 5.994484139355214097e-02
-4.804269275536610789e-02 -2.073217820182680637e-01 -3.448534886999132798e-01 -2.521255791874829066e-01 1.259510940042951610e-02 -1.661302907560600617e-01 9.554136605069710186e-02 -3.097308156395890411e-01 -3.520468575358515206e-01 6.282541360342337559e-03 4.188515488156271255e-02 2.481121446456504009e-01 4.411690265849509823e-02 1.026363659706804043e-01 -6.613155238179047046e-02 -9.553766281152485662e-02 -6.854273655164752621e-02 2.693332066255960111e-01 -2.200101538519295963e-01 -3.012261021955816021e-01 -5.301074820385473507e-02 2.906623479025106094e-01 1.780601251632075999e-01 -6.834640422662002779e-02 -9.047567941913151057e-02 -8.384589281326471077e-02 -2.430118661777790900e-01 -7.889783461673106901e-02 -1.060453226250227671e-01 -8.552470747321846978e-02 -4.081039251580471650e-01 -3.710602028155398080e-01 1.685798829012706557e-01 3.445510546888213010e-01 -8.819154789713710973e-02 2.204041164754666215e-01 6.297708928574802245e-02 -3.795050782758604274e-02 -1.379476328393686724e-01 4.052849624063152578e-02 -3.614413114704178587e-01 -4.229117378829709839e-01 -5.667902035195927779e-02 -2.645258912755549252e-01 6.219579211192589191e-02 -7.660881234158840869e-02 -2.582652561668516422e-01 1.370932575224123040e-01
4.245390210245844100e-03 -3.189699873032715294e-01 3.829419525640479494e-01 1.012347233922666900e-01 2.936250340445072382e-01 2.148206954126171131e-01 2.557700094808099678e-01 1.036503495775818878e-01 -1.567082725621306294e-01 1.369797337608560095e-01 8.911434003957671712e-02 -1.659681132934498760e-01 3.584158608914564392e-01 2.147999279678935725e-01 4.754706844081494910e-01 -2.458893232059667922e-01 -9.446523901360596998e-02 3.178867350314140139e-01 -3.219445280184431990e-01 -1.875610430287661112e-01 -2.762240375910014478e-01 -2.973698986865757066e-01 1.915082163896819623e-01 -3.110980319304912922e-01 2.374357384595747189e-01 -2.842658165622918842e-01 2.736961627172225797e-01 -2.242722914492371322e-01 -6.659898168581071531e-02 9.377333732362379271e-02 -4.551910704501604399e-01 -3.464536920589447733e-01 -2.403917894293978452e-01 7.320515113639182447e-02 -3.564019805134193697e-01 -2.579564068242160002e-01 1.672511038549008011e-01 1.474772271647007138e-01 -5.982723391138276836e-02 -1.131395897206084883e-01 -2.418305847898981065e-01 1.405388513225415137e-01 -1.657317349821065267e-01 2.310843029146833205e-01 -6.707951957046393021e-02 2.067912434581905823e-01 5.030309872986735154e-02 4.050052073102400896e-01
4.137165096101650952e-01 2.487090340706173686e-01 -2.444837206470087676e-01 3.953203350113874692e-01 -8.990557668418891479e-02 8.400106509917422415e-02 3.449872077455268249e-01 7.412287088331287466e-02 1.414783610161847172e-01 -7.632084533283352290e-02 -1.879777612632236028e-01 3.180155463141419725e-01 2.159981794798827848e-01 3.069865192093917394e-01 1.925740214001892339e-02 2.753805920386877548e-01 -2.179411632064749138e-01 1.217014503299331252e-01 3.042420594391312960e-01 -9.925596275462475471e-02 -4.904983001888739425e-02 1.976425025712972520e-03 1.344238882002331270e-01 1.317174760338731543e-01 3.532701157159310879e-01 1.211118597708792377e-01 2.855246819918820234e-01 -6.689895750596482060e-03 -1.446103730836412193e-01 -8.688845082123215768e-02 -3.041344344757108131e-01 -1.017632803979189593e-01 2.048116593518032325e-01 2.525422948850218618e-02 1.121074941645514439e-01 3.347237997695220457e-01 2.150370647489548981e-01 -2.202061810187797841e-01 -8.738503395998213630e-02 2.537035785196610771e-01 -2.281230344218420358e-01 -1.194933998071675239e-03 4.122221914689204458e-02 -1.791426879311883713e-01 3.241184830829576535e-01 6.294795789451564094e-02 -4.476248583727564061e-03 -2.322926288377512583e-01
-1.898880850222445515e-01 -2.261812081931765805e-01 1.281646930119485495e-01 -8.836250876676179922e-02 -4.276789771695874848e-02 4.847234937863378890e-02 -2.457704328813661021e-01 -1.940376594878231165e-01 -2.498373866964054280e-02 1.200896950464341723e-01 -2.604221170767224147e-01 3.443958146712270962e-01 -1.070143153282309412e-01 -1.781033334143564684e-01 1.033891576141975771e-01 -1.445977715406322750e-01 3.579828931768980760e-01 -2.484970805272309069e-01 2.484980306887165924e-01 2.589871127967885434e-01 3.684321567523207719e-02 -1.390139833482931242e-01 6.178024922713251654e-02 -2.540337644387532373e-02 -2.008626635212341083e-01 -2.532720825558465449e-01 2.078205025064657485e-01 -3.446074258863867090e-01 3.286526495887963639e-01 3.543307659528325271e-01 7.081787952593000986e-03 -2.459429140426349636e-01 -5.037934925129808339e-02 1.990538010846739161e-02 -3.873224457915063756e-01 1.563269629129059313e-01 2.636832386265964834e-01 -2.438484078220908846e-01 -2.880264429691526407e-01 3.170603534485412212e-01 -1.171830139728074621e-01 7.856133387254859990e-02 -1.495572258924605415e-02 -6.501874185366518510e-02 3.033092226629285348e-01 3.116325758412691882e-01 -3.210276386182072117e-01 -2.226211165374622492e-01
-2.331951529189882355e-01 2.709296506482575806e-01 1.287978114525322182e-01 3.805191722011850852e-01 -2.030480864124602214e-01 2.344621509174925345e-01 5.603160532431937513e-02 8.164593703280095816e-02 -2.179734947654229926e-01 4.008744348274206892e-01 1.189686711700999183e-01 -3.317143972598378399e-02 3.391406538981686092e-01 -2.481823453960653181e-01 -3.200702955243974746e-01 2.270667225497870895e-02 2.717764475398447566e-01 6.902848832051473871e-02 -2.016857403445322383e-01 2.763917236264219479e-01 -3.017064608007124973e-03 1.338576341309429818e-01 -1.886943776709744947e-01 -1.113662141529569993e-01 -7.304932306924583063e-02 -3.541157036619998477e-01 6.401199054113444753e-02 -3.117668084413772189e-01 -3.133183572243992687e-01 -2.576789869141562495e-01 3.359068684264088778e-01 7.823048649495223383e-02 -1.900709529981161883e-01 2.203547978731950907e-01 1.093223732865920492e-02 -2.508090428749182865e-01 6.185542709638301717e-02 1.232806357822281568e-01 -3.489373196741870631e-01 1.059447114894909864e-01 -3.698080415184963332e-01 1.887136875890877419e-01 5.512823811736743129e-02 -1.789216688623613272e-01 2.746247360187952236e-01 -1.710988484029384304e-01 -3.562791877689769349e-01 1.785101639370964277e-01
2.294595236126169974e-02 8.172332285879191360e-02 -1.446648756919445833e-01 4.461943374791493139e-02 4.980111420270127986e-02 2.269915345635438193e-03 2.564638949247368127e-01 1.782488792853612891e-01 2.501594064538482098e-01 3.033886809675282459e-01 -3.143368341363086960e-01 -1.333888291529352621e-01 1.617194476172368611e-01 -3.077324610559410423e-01 -2.805313326780233818e-01 -3.746387608169146066e-01 -2.878611597279269116e-02 -2.649843923839118043e-01 -8.391883926490385781e-02 3.011147975110030073e-01 3.816471301907398486e-03 -1.910764809352323013e-01 2.529142062272609626e-01 -3.763797020041494412e-01 2.823435772233451879e-01 -1.870013055027483773e-01 1.001453644796769377e-01 9.984665048703773860e-02 -2.504273063133756749e-01 5.232637506119360016e-02 1.198274221839150666e-01 -2.026760070699608896e-01 -3.224206038179655565e-01 -1.135564815567712688e-01 1.717059006993397197e-01 -2.333444474058997964e-01 4.051340927970128458e-01 1.557280614522068840e-01 3.447779202958086708e-01 2.346437305553080443e-01 -4.970360915866862267e-02 -1.123430733013061067e-01 -2.382452749675621206e-01 9.005612248307347245e-02 -2.911323277623546479e-01 3.616382472435625828e-01 -1.418056710338664594e-01 -2.378520781988379129e-01
-2.603756297460696478e-01 -2.007440594317954630e-01 5.345012341044889231e-02 3.259753746180625300e-01 1.979422235458941359e-01 -3.265679797693196718e-01 -1.139247739374849161e-01 -3.817977040884825701e-01 -2.394186481725212867e-01 -2.347309259580573904e-01 1.138927428405752534e-01 1.971544532781880632e-01 4.174531192246700440e-01 1.853873809151533603e-01 4.488307148282490999e-01 8.359943533543630345e-02 1.476066903098342542e-01 -2.678487442506320981e-01 2.201105523823243260e-01 -9.618918457989464321e-02 -9.735436205296625622e-02 3.511331324683016342e-01 3.795726441943485518e-01 2.363111124350248116e-01 2.773552939238991821e-01 7.847519279008905238e-03 -5.062936472844128954e-03 -1.228994719505736508e-02 -8.281053589595054054e-02 8.004473583922773472e-02 1.747372111508623260e-01 -3.015273162597834067e-01 2.512138318086464817e-01 4.397175373822501121e-02 -4.456346239323610153e-02 -1.186440837898110195e-01 2.641802089090545813e-01 -2.108608077979188047e-02 -2.356846285797311712e-03 6.239027114393214113e-02 -2.513073408105454334e-02 1.608835265283203586e-01 -2.896267895501754563e-01 -1.843624482629177830e-01 2.736786511982648440e-01 8.750158849919754955e-02 2.350047090290648955e-01 3.329110126277213255e-01
8.122679558580175874e-03 -1.575051776246076674e-01 -2.683531273113429205e-01 2.697231080431213845e-01 2.062597823058123087e-02 1.113711885832557452e-01 3.306470041610715116e-02 -1.507221859510795292e-01 -3.483881295602295203e-01 -1.117901523748808801e-01 1.375851191883755986e-01 -1.374915304345217804e-01 -1.215491631029536751e-01 -2.794312647224696522e-01 -2.514950382625626424e-01 1.218249849537919316e-01 -1.094299567217927038e-01 3.172921854024476906e-01 -2.365447973289684647e-01 1.902894357662745228e-01 6.951105127171204601e-02 -1.822913211033880820e-01 -7.429228683242296294e-02 1.249246792041525250e-01 -3.703277115487418891e-02 -2.440197306140635680e-01 2.700326646550572918e-02 1.095200098738046829e-01 -6.026073110208161193e-02 -2.804352056512111613e-01 -1.184219757256330385e-01 9.154622505460927734e-03 8.340917042958867489e-02 -1.979292133638780801e-02 4.467837107168342453e-02 1.553370294360934267e-01 9.703414207430052785e-02 -1.426925962973986384e-02 -1.654140134898466896e-01 3.318729244645710619e-01 2.168635272070235445e-02 2.447333861938219557e-01 4.429982922815896007e-01 2.067847521110956210e-01 2.019763432928772529e-01 -1.788520188001275768e-01 -3.965391158303371898e-04 2.644442439695105507e-01
-2.577573603097780275e-01 -2.253756664663555676e-01 -3.052290519176049099e-01 -2.626718445240693312e-01 1.604611550486993998e-01 3.326979400123844521e-01 -3.481412625301780750e-01 5.062724927900452698e-02 -1.050882800763188740e-01 -2.756304336875826655e-01 7.776267608078327176e-02 -2.560184369593915266e-01 -1.344378609034165839e-01 2.082388963524249015e-01 1.911376292922894460e-01 3.271633282950577870e-01 2.795772684974940359e-01 -3.354654731182406951e-02 -2.293438821294483954e-01 4.135818789629602116e-02 1.706195287472619948e-01 6.779422448770699994e-02 -1.611499814963740854e-02 -3.456918971960197817e-01 3.422896333604001362e-01 -1.592794565625402226e-01 1.348936382807909562e-01 4.080701095459004363e-03 3.089640894260882731e-01 3.783729681033174419e-01 1.830302549472916096e-01 3.364621827486734551e-01 1.712157174654310166e-01 -3.717497802555791431e-01 3.385016165241464536e-01 2.145385317825220517e-01 -8.105927985365267430e-02 3.280507240133139768e-01 2.801276219889795027e-01 -5.208036222363662815e-02 -3.012361131415982607e-01 -1.169269779597837400e-01 -2.711385541364426111e-01 1.291486907085001579e-01 -3.254832067304620768e-02 -1.312761173307855633e-01 -2.698227999229462770e-01 2.657299090797243801e-01
-2.919654508895788148e-01 2.276782076116443121e-01 -3.132372572234844166e-02 -2.837171364051883915e-02 3.682977283548645731e-01 1.135501643246605574e-01 2.640495728346470283e-01 -2.738169533360677588e-01 -3.052846729494727018e-01 -5.132004962104710910e-02 2.894615897777487179e-01 3.034548604344200484e-01 -8.241714137998952527e-02 3.694519027100260367e-01 5.430045877937799553e-02 2.968457762510433029e-01 -2.264494968605688940e-01 2.342883103774961173e-01 2.059586116631849650e-01 2.208878332197936056e-02 -2.531727855485403356e-01 -3.802590765112228710e-01 1.276489915971788236e-01 -2.539231209939592920e-02 -8.697503132605212406e-02 -3.945213044327706281e-02 -3.381366142670841346e-01 8.757892112243356730e-02 -2.379686741161118543e-02 -2.617378834367024565e-01 -1.618774777716917856e-01 1.837074355885869315e-01 -2.629522762834154981e-01 -2.375980842013884764e-01 1.961047175671658815e-01 -2.816321681268555421e-01 -1.874194915424935715e-01 -3.890849333681887789e-01 2.447576914643458390e-01 -1.617004219882083038e-01 -3.167167131078056364e-01 -4.216622314972934271e-01 -1.181808898922391132e-01 1.063773374687976420e-01 -2.671958174959350729e-01 8.097266729882712788e-02 2.938011910342241406e-01 -3.685449863402009418e-01
7.113086251675809768e-02 -2.715803205051115499e-01 6.304908055624058871e-02 3.099261742829110267e-01 -2.228745537038336610e-01 1.643489446394901243e-01 5.535712214469726972e-02 3.097221358901937338e-02 -3.324982296029949658e-01 -1.997573272042382497e-01 -3.810319727109702237e-01 -1.794981077688048987e-01 1.270039474196412999e-01 -4.080232821991321840e-02 1.482411464626169073e-01 4.326321546772861626e-01 1.465778122829986263e-01 2.348894200197410714e-02 -1.632244978354212561e-01 -2.530680296497749282e-01 -3.058449156112719169e-01 1.300207097496755282e-01 -2.761931702050581319e-02 -3.766427648341204026e-01 3.124408924841165502e-01 2.104038851429959889e-01 1.801780955455198896e-01 2.028150782916221251e-01 -2.466045991443403806e-01 -2.587611842171821941e-01 -8.184525054767231855e-02 -1.292960634399801245e-01 2.573095560772410972e-01 -2.569242608957191254e-01 -2.183626694840651028e-01 -2.330873010322001004e-01 5.655385229252767737e-02 2.949387873012105366e-01 -5.557163630519366265e-02 1.572768666789204628e-01 9.174552929586087240e-04 -2.202374719982083950e-01 1.677360833624185754e-01 2.356067708528794824e-01 -2.525961281827387994e-02 -2.723956421369650993e-01 -3.672526214223295615e-01 -4.426139232507760035e-02
9.466636650398647934e-02 2.344602225650374017e-01 1.448801225553829064e-01 -2.766232258837394431e-01 2.010901254689623774e-01 3.131728585511386331e-01 -7.748441777000794617e-02 2.173381908743823587e-01 -2.224999826576199713e-01 -2.435244985802246243e-01 -2.118543715654862547e-01 -3.390857917371523089e-01 3.599853991057353486e-01 -2.900825408448686749e-01 2.561925592407951480e-02 4.222801829266559226e-02 3.197421839354392392e-01 1.337323988854212664e-01 -1.767225111707813323e-01 2.823234630552800412e-02 3.568004348250013447e-01 2.451231375690260950e-01 1.287478507194522448e-01 -6.925479569239482991e-02 -2.433087602839779928e-01 -2.494916017489640925e-01 -2.694246135415624341e-02 -6.845383259149286082e-02 -1.328834418502335690e-01 1.746972906267869538e-02 4.232061996577420326e-01 -2.908509815228420559e-01 -1.351629905268793841e-01 2.174063520003972905e-01 3.332708434298938260e-01 -2.996368595282903891e-01 -1.909989704173443437e-01 2.383573619600308224e-01 5.665512413296590333e-02 -3.426330426535784124e-01 -3.450733891028368583e-01 -1.400591971826253834e-01 3.838961879324099408e-02 1.716725057076304573e-01 2.970994261027336547e-01 3.484555617668907423e-01 2.250194001957394885e-01 2.159476335527770741e-01
-1.289968612045053753e-01 -1.855963359953497482e-01 -3.445801963908515786e-01 1.511911213159122525e-01 -2.670553617038451399e-01 2.761891627486579015e-01 2.606127239546233154e-01 3.854435788270346719e-01 3.422854391219705139e-01 -3.383051042706298195e-01 -1.865000537170887207e-01 -5.957114313304624070e-02 -3.764398334161321857e-01 -1.269664811125354375e-03 8.906225897091116228e-02 -2.003763650713243916e-01 1.333066662434793936e-01 1.876361887526458716e-01 3.053568391139478422e-01 1.606874063060637417e-02 3.010147706303448745e-01 9.102157354790840760e-02 -8.581427573244869433e-02 -1.341381933491176126e-01 -4.771244124332271741e-02 -1.125378802597614830e-01 -2.263110507428416907e-01 -4.200275555075488887e-01 -5.260263768633257619e-01 -3.671495400080052041e-02 -1.110223189416082411e-02 -6.978241295179887782e-02 -2.338830378858984260e-01 -5.357797670055887140e-01 -1.109513221361910218e-01 2.696611988401586002e-01 1.000408667128239587e-01 1.049209605911792936e-01 2.719606874867839807e-01 -3.216566257763091574e-01 3.072550064373454348e-01 1.448785077454569081e-01 -2.427645751258033779e-01 7.053317782528607804e-02 2.734651165823691610e-01 -2.418446310998309812e-01 2.398364562294610924e-01 -5.117682323293968466e-02
3.394351773551568252e-01 -1.070325462804115335e-01 1.333611575637984881e-01 2.924661503383445549e-01 -9.675467943044678554e-02 -4.111265628182596971e-02 1.484112328650020740e-01 -3.763233088656894321e-01 -7.787217475036131709e-02 -6.744811655542928830e-03 2.380652047727431220e-01 -1.215435657995876939e-01 -2.533766043086955744e-01 -1.186733693254739264e-01 9.294570044555003352e-02 -2.672476422581104849e-01 1.641669723858228958e-01 -1.613813415872865364e-01 2.580790150518144088e-01 3.996137291999362073e-01 -5.712490526059546547e-02 -3.718924463561190663e-02 -1.522173038318253568e-01 -2.669531724610677559e-01 3.078648689520087633e-01 -1.576297828949066171e-01 2.173250978939705313e-01 -3.516453076488824658e-01 -1.136113339001011829e-01 1.655265301883006301e-01 1.118043099285943170e-01 3.215043690867449011e-01 2.543326461241961489e-01 3.129563002682367867e-01 1.829043920884775021e-01 -9.675411786686149984e-02 -3.616112062290216533e-01 2.524154069197255268e-01 5.322982102870021937e-02 -2.459266829516753849e-01 7.920666372602438998e-02 -1.530028782775198770e-01 2.346908141814879889e-01 -1.078615108208424850e-01 -2.925367821766898802e-01 -1.444862548373748445e-01 -9.459774469207042624e-02 2.699946371928522160e-01
1.980182737622824540e-01 1.560112801466586596e-01 1.791605445525852602e-02 -7.099825040454842140e-02 3.673410637765542885e-01 3.873923143857402329e-01 1.392385240940406665e-01 2.619125219619116707e-01 8.221274476235773676e-02 4.513291179576117695e-01 3.237164119071523349e-01 2.680445876003920147e-01 -2.422629838860082263e-01 2.634226421146984021e-01 2.930519121378412084e-01 -3.003294411008410741e-02 3.842039634063847964e-01 3.448893445296716265e-01 7.645185965805846584e-02 -1.034485363420022674e-01 -1.829787212016396047e-01 2.995441268947938718e-01 -1.505006993969990603e-01 -2.995961125178973061e-01 -1.828372718859463397e-01 3.178076352873697719e-01 -1.016472955777078663e-01 -3.710470998015954341e-02 -4.426659274544281208e-02 3.120891845524770281e-01 -3.189771248570508200e-02 1.041741628811793524e-01 -2.263711219958142173e-01 3.461324863328101714e-02 4.088837344794869766e-02 3.712723423289299718e-01 -1.179089456264624698e-02 2.988706746688010729e-01 1.012595258444528717e-01 4.208295109526655892e-02 2.075685253509213790e-01 -3.471942226766486783e-01 5.010826488259499945e-01 6.008070466764396933e-01 -1.295218727329321418e-01 1.917632812930077923e-01 2.779723586916189593e-01 -1.376863463727791004e-01
2.175841081572035263e-01 1.505605330292547339e-01 -2.794028646199638866e-01 -6.261172919544302773e-02 3.536126569721559365e-01 1.116458893116895473e-01 2.801907219313526376e-01 3.068205515069178171e-02 1.743757714839023198e-01 1.206735342046303811e-01 3.300192244032864597e-01 -2.492384296620794859e-01 -5.934090835755558013e-02 2.122139729935137997e-01 -2.565611814790056955e-01 1.500237654131317266e-01 2.455180682263177483e-01 3.781687380326327896e-01 2.305331406300639430e-01 3.439143249454835738e-01 4.166084856509186807e-01 -9.390652695141173123e-03 -1.981006337351489399e-01 2.590875960548897350e-01 -6.857064365038127718e-02 1.720446440495360663e-01 -3.891847824975054326e-01 3.501008118754400655e-01 3.242345335962539821e-01 1.364567065044982042e-01 1.643845745886239607e-01 2.386117550295322742e-01 -3.249254979983753899e-01 -3.094388274528234173e-02 -3.055348795087918234e-01 -1.688189316486967155e-03 3.053028797118764737e-01 1.025463253026005911e-01 1.189373218272474220e-01 -2.816326241955419141e-01 2.497887803540667917e-01 -1.842893295212056082e-01 -1.541694187147732084e-02 -3.881460011330766235e-01 -2.574050081350502395e-01 -3.394372642381369709e-01 -1.908039934565008700e-01 -1.466370351561925578e-01
-4.325784863569279159e-01 -4.095681912602433528e-01 2.313642146586281645e-01 -1.477583062350375509e-01 -3.719242730318959578e-01 -5.160052164792513357e-02 3.512036824130195245e-01 -1.294178659195308612e-01 7.308579774786451433e-02 -2.889825331316387552e-02 -1.032271581648185610e-01 2.733685783965278948e-01 -6.858018930016303305e-02 -2.308497525991184962e-01 -1.356623211875007950e-01 2.073548087380394644e-01 -2.353016124425390820e-01 2.591365877195665468e-01 -1.491647853417578662e-01 2.020351813993919998e-01 -1.569400154610426645e-01 1.863686658950456654e-01 4.126088218473426550e-01 -2.831021791760178208e-01 3.316047332480324128e-01 -2.393360574471324331e-01 -3.219223561176724480e-01 4.001219622610599491e-01 2.148563008066989022e-01 -2.245534182487290420e-01 -6.479948142502132968e-02 1.899142798621660799e-01 3.572916693736249982e-01 1.721219454700051443e-01 3.543169647321002813e-01 -1.438833625612807310e-01 -1.470275032813905536e-01 -1.723646827936580750e-01 3.591302081287600645e-01 1.782789842624266652e-01 2.843090148175760334e-01 3.423872115442366804e-01 -2.607296447712997289e-01 6.479284241375901643e-02 5.829967640339026730e-02 2.021161112850038688e-01 -7.140635666150838001e-02 2.255397582597855055e-01
