-1.417855727566991186e-02 -2.173150571833275535e-01 4.520587512366390781e-01 -1.708516338728183759e-01 4.111623441143878455e-01 -5.083811437968312891e-02 -2.349254093918616004e-01 -2.622082454676411545e-01 2.840492644711978820e-01 1.561779213534975844e-03 -3.150714520126672302e-01 -3.156496836845138626e-02 1.684925633189476579e-01 -2.084673534775824399e-01 5.218862901348854388e-02 1.385740817046092754e-01 2.240377683939161479e-01 2.010505772513725420e-01 -1.529959766329912763e-01 -1.370737809250046069e-01 3.575220145787647574e-01 -2.019542947924103382e-01 -3.133582411193169825e-01 1.378148297527399535e-01 -1.219786820521101822e-01 -2.800188198542383766e-01 3.600112923170083884e-02 1.866356603405637526e-02 -2.625207177298796157e-01 -3.214595424796444778e-01 -2.910995554897722326e-01 3.887684544774410167e-01 -2.581388754149954168e-01 1.072303849331903286e-01 -3.193017240218639641e-01 -2.952392535095261783e-01 2.270742848291976146e-01 -3.114842771948782285e-02 -2.050321886678544980e-01 -1.134256908346977927e-01 1.882009997990518047e-01 3.908765978384701745e-01 2.438677877169824482e-01 -3.299380564396823812e-01 2.083976316337918799e-01 8.535874620839141447e-02 3.008104627618371496e-01 -2.899265089844683119e-01
1.720384659263477778e-01 3.620218936338034377e-01 -2.920533325168978012e-01 3.143042156802878240e-01 1.350278019806897267e-01 -2.697351469320704020e-01 2.575560814193935885e-02 -2.941667438961117487e-01 2.185800615446483741e-01 2.688863634368939270e-01 2.225602134283555800e-01 -2.534930763449620428e-01 3.787480086768842402e-01 2.739915524146759873e-01 1.146725544094623628e-01 1.420839160035633209e-01 -4.402976241584858341e-01 5.345301959966602262e-02 -4.522972726200537585e-01 -3.318708127667212571e-01 -4.735395478260505109e-01 3.132148964384474654e-01 -2.037574637228351318e-02 -1.102275494178924509e-01 2.871720714998802770e-01 -3.358302287313159606e-01 1.487890869971905394e-01 3.287639303654368850e-01 1.036185816277551131e-01 4.072484359229445738e-01 -8.576404176256628362e-03 -8.991507632136665207e-02 3.087631073855295338e-01 8.978790579452960996e-02 -2.451173380353171838e-01 2.766679217053435447e-01 1.529223945772076876e-01 -3.391761283505289604e-01 -6.204369309080591532e-02 -1.709863187838089882e-01 2.145725405674876740e-01 2.995161817197224408e-01 1.396836598438386534e-01 -1.776092550768749445e-01 -8.429084949187391762e-02 -1.045180971658458136e-01 1.237369836175516852e-01 2.479636631924858337e-01
3.217240236653876595e-01 2.777904821910329725e-01 -2.451557520753103528e-02 3.445791273695398838e-01 1.098916471129903899e-01 -3.342213288872440680e-02 1.599345462735355383e-01 -4.285676084249452622e-02 2.425181906413209632e-01 -8.232370748145451111e-02 1.169079037724563702e-01 9.692381867919583338e-02 3.115772198168696439e-01 1.529506161521345387e-01 -2.001479127079032194e-01 8.939154673266128115e-03 3.120520528952626660e-01 3.255547218894718209e-01 2.606487353031595733e-01 4.472874099043259166e-01 2.920816860004439852e-01 2.389383246079628542e-01 -3.105030089613360425e-02 3.771274051399104432e-01 9.139747427802694113e-02 1.537170215290104003e-01 1.812235148096286996e-01 -2.879544840060073163e-01 2.207459673331526595e-01 -1.168251760706355037e-02 -3.989676809417945225e-01 1.656773890319204190e-01 -1.014180598846901454e-01 -2.992977959376234010e-01 -3.598161538804005577e-01 3.298903869429503644e-02 1.467653686482028319e-01 1.069938590495788655e-01 4.267603838098806002e-02 -3.148061607691291508e-01 1.830396000052733618e-01 2.114220414370281409e-01 -7.810271717271385916e-02 -2.988812823988878844e-03 -3.098088786323140165e-02 -3.938445635332227246e-01 5.310341398423230712e-03 6.691420990023222437e-02
-1.332300430044137951e-01 -1.265047347757350393e-01 1.393762185193845315e-01 -1.975353807070290291e-01 -1.816470830713881324e-01 -2.381946841648469593e-01 1.239077813468555771e-02 -2.531006582202874333e-01 9.817880438393539189e-02 1.295738312624997446e-01 -1.389415498203377120e-01 3.330901126628787456e-01 -6.017706935948205493e-02 -1.636193636649530270e-01 -2.776550379452920603e-01 -1.295873692200854577e-01 -1.510077819088677109e-01 -1.320649907722412086e-01 2.117136693528643421e-01 2.434897464547074453e-01 1.499115837770610415e-01 -1.747441760603876959e-01 -9.422017814883340558e-02 2.757785184863791317e-01 -3.344375664736098930e-02 1.597897695676615826e-01 1.009268084002684918e-01 -3.520164386532426137e-02 2.601511782094241294e-03 5.800619053012202181e-02 -7.549639922286376092e-02 1.349106801982830894e-01 -1.636903043950927198e-03 1.073087114509190948e-01 -3.010183517448572488e-01 8.092164286810557550e-02 -4.275582367911912735e-02 2.683098193313621094e-01 2.539182401294080571e-01 1.910863205767849571e-01 6.668125351608266381e-03 3.676910313971397670e-01 2.128094130541945961e-01 2.270303967510999832e-01 3.454711791065111504e-01 -2.714075771046215932e-02 -3.540969253631403579e-01 4.164680029678597961e-01
1.669415004590453222e-01 3.954355076730135116e-02 2.918409582529761237e-01 -3.014113882412874368e-01 -8.438433682655127610e-02 3.616458704452831241e-01 -1.530056528915143821e-01 1.645020995600444125e-01 1.833636236117284768e-01 -1.660126124845604512e-01 -1.798070273723487988e-01 -2.192089205643616145e-01 -1.635222618948415085e-01 -5.954365630813469173e-02 2.613446401643249040e-01 2.599334228519821210e-01 -3.668339639166422472e-01 2.144122365112829109e-01 1.095852819236474984e-01 -3.441857305531423328e-01 -2.382572583563356827e-01 -7.708385043229819267e-02 1.247481394315452796e-01 6.007222673284698389e-02 3.313653582667669961e-01 9.703942490262555676e-02 -8.109020490824651872e-02 5.991195779180340936e-02 2.689519787535616380e-01 3.241656458402743524e-01 3.675910075298332025e-01 9.512900746833138910e-02 2.074502355540587262e-01 -4.149383723146752301e-01 1.237256630505248617e-01 2.963768218829217899e-02 3.451173211598267399e-01 3.087952951787557021e-01 -1.822016692635993751e-01 3.788880455932717717e-01 2.549937614485017212e-01 -2.958312591319232077e-01 -1.233468150144831910e-01 1.375131713620436902e-01 -1.940949817370077324e-01 -2.019260550009790156e-01 -8.417749372588946219e-03 6.815347367784976851e-02
7.363925923522716965e-02 -1.603520838279780605e-02 -3.983801927318006701e-04 2.085273202989186281e-01 -2.294307394104000419e-01 4.283624080974808568e-02 -2.687189988958355036e-01 -3.393301524822275317e-01 3.498674445513644260e-01 -2.294899102572300897e-01 -1.417279537508192855e-01 1.747996094166315018e-01 -1.838209878823141574e-01 -3.260285620314279376e-01 -2.154962460096528087e-02 3.129081113139876025e-01 -5.665402863317702681e-02 -2.230105555721968724e-01 -2.815464259897146326e-02 -1.570431774978689743e-01 -4.087761367527108225e-02 3.588524526746280641e-01 -1.743679575678865057e-01 1.580791255757721947e-01 3.761544346567777808e-01 -3.488873778786185098e-01 -3.287147872867803300e-01 -3.198841787732002034e-02 3.413034244851984034e-01 -1.972958943921175878e-01 -6.699698169702433814e-02 -2.610912048520299678e-01 -3.718449612673864202e-01 -3.600208927895619249e-02 -3.035516264335644254e-01 -2.089263234026965677e-01 -9.997818632869631683e-02 -3.843882603707470813e-01 -2.390603671890350890e-01 -2.852872343801261534e-01 1.990025962733976694e-01 -3.665363085620794714e-01 2.484845679501213600e-01 -1.915680211104170971e-01 2.730456217327693058e-01 1.183128786486851436e-01 2.593077121552690989e-01 2.702986679232485812e-01
-2.050258375618235485e-01 -3.444025018083746725e-01 9.393345869688864147e-02 -2.973884541054688802e-01 2.075714918057422753e-01 1.086381105510502293e-01 2.860577452833795165e-01 2.131284195696738770e-01 1.801352101771733216e-01 -3.673900920004927184e-02 5.786991691000828615e-03 -1.152847124311851545e-01 2.630956746631754606e-01 -3.962256529084232093e-01 2.124870338938555092e-01 4.654274542160349304e-01 1.235210707985472667e-01 4.613770596711307959e-01 -6.069131481414454486e-04 -8.895346121050581867e-02 9.205915060889785506e-02 1.799208925287257566e-01 1.047248800072337130e-02 3.207835752465229562e-01 1.649327945235572468e-01 -2.348753941765654163e-01 1.264811303595481384e-01 4.258163790636582124e-01 -1.889571144922989610e-01 -2.113738406013619675e-01 -7.705171525204519006e-03 -1.996128845368083382e-01 2.687157132755029765e-01 1.919024159387231615e-02 6.991938257889940278e-02 2.658085380880466642e-01 1.474754561543313025e-01 2.802736525063149742e-01 -2.379395800392416493e-01 -5.005068867959716790e-03 7.075709380422577632e-02 1.258542037928178647e-02 -1.216797045315967801e-01 2.618044096906456675e-01 -4.412706381959015101e-01 4.460620794820044921e-01 2.764538193848404823e-01 -5.310459170209400753e-02
-1.424364391806817731e-01 8.135446043221797319e-02 -2.553321081781293467e-01 1.219053601932157810e-01 2.204454812239301648e-03 -1.582940104616213373e-01 -3.288843106966241603e-01 8.724113396149688060e-02 -1.232898632053660987e-01 -2.619640746375984652e-01 1.282222312762809624e-01 3.925697064789234608e-02 1.469626670136091606e-01 -1.289924601150942984e-01 -2.874994439229410226e-01 1.760045088795680335e-01 6.348483972194271518e-02 -2.426354538476012124e-01 -2.995618320601264317e-01 9.660136837087500428e-02 -2.202710834808549178e-01 -4.059167191050793710e-01 3.742718339673391514e-01 -1.461178745332513962e-01 1.945095264588247441e-01 6.244387206918899230e-02 9.649077862942184725e-02 -7.928634105608624305e-02 1.205570997734585759e-01 2.450173886653148891e-01 -3.370657188233818213e-01 -6.755551839350187882e-02 4.053547724328072643e-01 -3.383764037322599671e-01 2.129034293643785325e-01 4.465137810122647988e-01 -3.576526239567948129e-01 2.297526858302180452e-01 -6.567486303247410673e-02 -2.689600486484169384e-01 1.674822280551165887e-01 1.484279314062908472e-01 -3.060069538437412695e-01 1.792289340297852918e-01 1.877667584963777503e-01 -1.707838031632518683e-01 1.578410141879398598e-01 1.019647770340550846e-01
1.133350238413304567e-01 2.322180655787240561e-02 5.318569779492066107e-02 3.254108851425480675e-01 2.180538232114757891e-01 -1.722473484122596932e-01 2.579640057046273527e-01 2.824442146039590762e-01 3.562872882946302444e-01 1.949912395380325181e-01 3.249302197728272112e-01 2.027049461340716119e-01 2.430635769113780736e-02 1.474366148858979597e-01 2.724510902332680784e-01 1.706806122766748035e-01 1.922972920458976276e-01 -2.425384368326113371e-01 -8.250595069088950684e-02 -3.064198554868078350e-01 -2.330823793185161363e-01 -3.389250011126400397e-02 6.621795631544859229e-02 2.882949363381007157e-01 -3.823783602462713649e-01 -1.387944836879684007e-01 -2.860796052977006010e-01 2.729844391434120832e-01 -2.058447165095569562e-02 -4.430719057047735956e-03 -7.173280400829816494e-02 2.597317482203505556e-01 -1.336413532723598474e-01 3.343401851442260875e-01 2.583074657852473810e-01 -2.088920134016820085e-01 -4.011136548878591057e-02 -1.561564188452359003e-01 -2.272657362110113710e-01 1.722978930364346406e-01 1.730837673433011648e-01 -1.146290497761869032e-01 2.206944471394687857e-01 8.098594570962434902e-02 2.798047406039291807e-01 -6.907674292131285587e-02 3.055279583765407314e-01 2.679534738279359951e-01
-1.486837584018357861e-01 3.492962361491656065e-01 -2.490283596700258173e-01 -2.128126093226730131e-01 -9.913297381766526806e-02 -1.083176291601258001e-01 -2.520098743587093626e-01 -3.003903596635034701e-01 -4.623373969140838480e-02 -1.085369971097071423e-01 2.760606262841948655e-01 -1.443789993156325557e-01 -1.191330923568805072e-01 3.909347732164447087e-01 -4.461977842648089804e-02 -1.155668326624374187e-01 -2.114969000583225706e-02 7.789075006143163227e-02 -3.001377919984296039e-01 5.174670349187057705e-02 -2.620823209473793769e-01 -2.603128176706996991e-02 -5.371841526564946623e-02 -5.326408987168247677e-02 -2.525614533907425407e-01 3.420274262236007168e-01 -2.185530892968436945e-01 9.398043766802904875e-02 8.826915007779786992e-02 -1.423556329013652699e-01 -1.040466963319447713e-01 -7.950436547156174150e-02 -3.730785377290833649e-02 -4.162036738255465301e-02 -6.100497656988919382e-02 -3.872609500931542548e-01 1.497529467952387339e-01 -1.337736237596818811e-01 -6.239499296488570934e-02 7.644463416988291071e-02 1.961494921291373483e-01 1.793310409876611514e-02 1.259280140781914581e-01 3.348236099137257282e-01 -2.455840525941268560e-01 -1.808819073348569284e-01 1.170566381855139976e-01 1.239624429372936654e-01
-1.104932352541016793e-01 -2.919669922029748399e-01 2.422978844767262330e-01 1.710835555783460082e-01 -2.364435044358693949e-01 1.685910051447742919e-01 2.266176777010777202e-02 -2.493876917694198142e-02 -1.683585210469012716e-01 -1.199334131849116164e-01 5.767752972853239235e-02 -2.218166315407529843e-02 7.542931979387863806e-02 -1.024041672031009154e-02 4.555617700374430812e-01 2.985964177142734211e-01 2.587712008589080903e-01 2.391158094503339770e-01 -5.451969839800942241e-02 -1.619998032949728772e-01 1.319978718685277941e-01 -2.554169004496421036e-01 2.449948851058758037e-01 -1.598594209992902360e-01 -1.666462982320811859e-01 8.169418570044800765e-02 2.754939009671569239e-01 5.003178421388129737e-02 -1.363150761298467240e-01 2.904461477106002887e-01 -8.022908351842522601e-03 -3.436793125116715530e-01 1.229627189257188891e-01 -2.223826330536837481e-01 -1.079185466337180821e-01 -4.715774862073729076e-04 -2.424694681241661709e-01 -4.263391786995527483e-02 3.407783384526069104e-01 -6.152832215453369127e-03 -7.238918451399047049e-02 -1.331235518436006682e-01 -2.146515982857576665e-01 -6.873427994646974515e-02 5.115828712162348579e-02 -3.590294011474486346e-01 -3.563031397793661736e-01 -2.632062541174582937e-01
-3.639201560792300616e-01 8.906209484702985735e-02 -9.001334779233666206e-02 -5.319118259711384800e-02 8.549749490936522922e-02 -2.784365025411670858e-01 -2.752776708105700298e-01 2.982313491650696591e-01 3.943643428168041032e-01 -3.025062909417097767e-01 2.709958279606663467e-01 -4.617440322320657264e-01 -3.636029344149990794e-01 5.173915861852786818e-02 2.624388931011074622e-01 -2.408281469399766728e-01 -8.099150821099340702e-02 -4.859289891583840754e-02 -1.355337253909355555e-01 1.672443444054185768e-01 -7.309528632724995867e-02 3.178388275889892367e-01 2.627949855559283954e-01 1.645806712521211690e-01 1.436229370030615848e-01 -4.240799122647593289e-01 2.429250415753260173e-01 -3.178610168396470703e-01 4.647371719924262568e-01 4.343545271566782162e-01 4.094883846597254240e-01 3.142455025732277529e-01 -2.252082009939782858e-01 -1.425014269354286656e-01 1.200978152230145618e-02 -7.885928036921036055e-02 -4.887187810540194466e-01 -1.228865706219662152e-01 2.332294455285574275e-01 -1.293853962620786224e-01 2.096510411399014895e-01 -1.018146288987407388e-01 2.256364778965067874e-01 -8.974772864413373130e-02 1.188581844257969311e-01 1.305007789061862896e-03 1.054890885624971825e-01 -7.521026322697947630e-02
-2.750012458461841280e-01 2.573286820935125063e-01 -2.758016316037700810e-01 -4.259102131799338137e-02 3.598539651998117761e-01 2.655982866088194561e-01 1.797593206734040550e-01 3.704009545924161206e-01 1.020096784973884424e-01 1.209969905064117029e-01 -9.089693299102168111e-02 3.695437756615847780e-02 -3.552666507015915243e-01 9.080060456638458510e-02 -2.282707366809165472e-01 -1.994408364678916246e-01 -5.915445180981625944e-02 -2.102989724772292846e-01 -2.406374661663378614e-02 -2.620418860205351863e-01 2.930825954610375983e-01 -9.634016978794930630e-02 4.754639306377605318e-02 -7.049633531704706246e-02 2.068352465349856950e-01 -1.105266373828615867e-01 -1.556544066860453095e-02 1.973216141901648971e-02 4.611677048247447841e-02 -4.721743568677388980e-02 -2.328558655241383113e-01 -3.525685101540326771e-01 1.000566929184788789e-02 -3.268078286838203006e-01 -5.571513387355694902e-02 -3.465535234492239658e-02 2.093638722333471813e-01 -2.873773532822165300e-01 3.419082372484752441e-01 1.353150170920458806e-01 2.362857539424884912e-01 3.111681384997631028e-01 -3.053904193062713102e-01 -3.807199632146647250e-01 1.651223430248187907e-01 3.193623174606454590e-02 8.735090943131811059e-02 3.043039906984126297e-01
-3.067910259143962204e-01 1.526388579976783490e-02 -4.299182281354371749e-02 2.244224471623225692e-01 -3.204656052835421765e-01 -3.650846905664006936e-02 1.723597847776865699e-01 -1.648143365293585350e-01 -7.746302985492663218e-02 8.701770544159181942e-02 1.752044149910639836e-01 3.950171139885577110e-01 -2.417196576884501902e-01 3.352370529681764945e-03 3.215766019056422453e-01 -2.396714538134644135e-01 5.360484899984886697e-02 -2.479732276494219789e-01 -4.951740250737618476e-01 -1.138594601592133465e-01 1.385587755747503536e-01 1.419213501655807175e-01 -2.048767866197718224e-01 3.014950488210162149e-03 6.760703557294610311e-02 7.325653883534208322e-02 3.698710607506116577e-01 2.365672891637019826e-01 4.379990356037626875e-01 9.203498105779588101e-02 6.308716700858757985e-03 2.987281656976711885e-01 -1.224976010871200588e-01 3.130845655548186723e-01 6.536274561762156488e-02 2.188573472871929437e-01 1.896852176028546166e-01 8.221836293424503173e-02 3.772834720807794473e-01 -1.530920996338405171e-01 3.655110801313616320e-01 1.403173830075264139e-01 -6.922586460888752180e-02 -3.586634455254937848e-01 9.755576980157094902e-02 -2.033313196627150599e-01 3.129266974489037789e-01 -1.277211971344065777e-01
-2.928924901782245516e-01 2.930304478568664939e-01 2.951868317572580724e-01 -8.619763142899726505e-02 3.227624032563943812e-01 -3.076525407122882028e-02 8.903736794657328424e-02 1.521018429947990080e-01 1.782539852577154915e-01 -9.856597793874972979e-02 -2.851360197817317046e-02 1.112074360107342813e-01 2.138320246080364639e-01 8.512745896415217783e-02 1.545732569626770692e-01 3.863348494475261474e-03 1.905686365416668915e-01 -9.607579114769186635e-02 -3.404837376581218433e-01 -1.549064248566185409e-01 -1.930607161480006884e-01 -2.106076889772801330e-01 -2.562268746565861122e-01 -2.547652044484625122e-01 2.466099107684295300e-01 2.454794333811135820e-01 3.266880847141832578e-01 4.337754142939648921e-02 3.609806718828770800e-01 2.639485733484723401e-02 -2.319914172383904238e-01 -3.256418170264344103e-01 9.487186197244432476e-03 1.724852355926037584e-01 -3.700741534578155245e-01 2.099822104487967800e-01 -3.578360661276981936e-01 1.423675291501662610e-01 -2.501713417127859329e-01 -3.112783593198330534e-01 -2.633718974791237066e-01 -7.341093551336302925e-02 1.235216539664620999e-01 2.294486352565911214e-01 2.367672174996720766e-02 3.214858908819424044e-01 -2.493298518585687906e-01 9.002777524749215610e-02
-2.708783528744427294e-01 -3.429603934641764496e-01 -1.739829192719902495e-01 1.016535990166716613e-01 -2.546356220284817229e-01 -2.734856192091279503e-01 1.400835013271070628e-01 6.380689081610657620e-02 -6.769561482459901525e-02 -1.265326800084415892e-01 2.059546537987071713e-01 -3.811777580090578987e-01 1.887646441079615656e-01 -2.821633436434993758e-01 7.329626323865474913e-02 -2.107871266370193730e-01 -1.429758554928520498e-01 2.742551848933353908e-01 -3.839678789161136280e-02 -3.811340947505524324e-01 -2.231023554743279125e-01 2.687517287941601496e-01 2.361442557742416404e-01 4.955054738123856883e-02 -2.844669978815774769e-01 1.443476628594393685e-02 3.136071634848433543e-01 -2.954394729768246020e-01 4.331327873270709311e-02 2.794249634550290406e-01 -2.447906864588259013e-01 -6.473180390680949303e-02 1.434245231080233940e-01 -1.349776667535022671e-02 -2.375176384361608051e-01 1.957061874663571233e-01 2.223289912586098316e-01 -1.309541836072414811e-01 -1.982737120442384926e-01 -1.766983477171926442e-01 3.318641800690132482e-01 6.922753400258298273e-02 1.798767548503106550e-01 2.351851335743533611e-01 -2.005820900559480424e-01 -2.411428017133373236e-01 2.764212413551849212e-01 -1.796164449700738408e-01
-1.212153456637735383e-01 6.992499420400999366e-02 -2.155091248377177526e-01 3.730129042406670203e-01 -3.222079579457573506e-01 -1.458593530396042059e-02 -1.958916046838901637e-01 1.591709751178305987e-01 2.082362272770019174e-01 -4.682091243298386884e-01 1.754661699611082815e-01 -1.670456834509746191e-01 1.884103438575935041e-01 7.579304913644040187e-02 4.502531829249006162e-02 -1.346941239471412775e-02 3.436168726874413437e-01 3.615317540760012299e-02 7.714656595749803947e-02 5.273996737029106735e-02 5.121911042023171573e-02 -1.344807729513383676e-01 -1.063811263676371216e-01 1.835301194708615080e-01 -5.932598027157664350e-02 2.872477171000378249e-01 1.899379729354720159e-01 -1.083733472452914764e-01 -8.305188610599315013e-02 1.948005910473605551e-01 2.064439310551224038e-01 -6.922079979598352861e-02 1.095395370290269954e-01 1.505684434621153700e-01 1.895749773341211530e-01 -2.783996511424755571e-01 -3.585339156157203028e-02 -2.510992461288888977e-01 7.866056466812876291e-02 4.553083673389194952e-01 -2.832480563340483704e-01 1.255625137176625550e-01 5.035426582522281036e-01 2.406417640854852102e-01 1.904755161300531741e-01 2.498282918341110104e-01 3.847007564965113091e-02 -1.112206383743365445e-01
-1.267480111095172501e-01 6.578818477819795008e-02 -1.214206028715581198e-01 -6.661978876622630386e-02 -1.388564074707153706e-01 -4.810359335541028458e-02 1.379158522533944706e-02 1.260505257860168038e-01 3.492949438181761068e-01 -2.509050811480539878e-01 1.438527345221054798e-01 1.118135178729047496e-01 6.547499459194107418e-02 -1.931912787904309647e-01 -3.151565980807102818e-02 -2.540500651808192401e-01 -2.331487002658265695e-01 1.810018302569344484e-01 -2.307767542037617858e-01 -5.731125352191910466e-02 -1.597046128935502296e-01 -2.454195376853675892e-01 -3.135691942604622584e-01 5.054724424695026253e-01 -2.838814669832497861e-01 -1.471045557134705861e-01 1.837215822850180591e-01 -1.522473775298386067e-01 -2.167451717062897076e-01 1.424426992728742569e-01 -2.001918722321394950e-01 1.327150615770469333e-01 3.807030823354721760e-01 -2.710397862309285588e-01 1.824158381427240169e-02 2.613264490884935620e-01 -1.687265606334217571e-01 -9.441938289182508215e-03 -3.065470812537684497e-01 -9.666588327131450664e-02 -4.110637716939353759e-01 1.900292027345590051e-01 -3.164281745771613807e-01 -3.753751148724816800e-02 -2.786837310381106714e-01 -2.712205948996435634e-01 -9.182926884827201375e-02 4.278849467544983826e-02
-3.657063036708812498e-01 1.077937587986464163e-01 -1.533961235354577290e-01 1.713043099866442820e-01 1.212399076758536587e-01 -4.001635046331139534e-01 4.390313243493301765e-01 2.983312366899870116e-01 2.597674991949040779e-02 3.281229314405459396e-01 4.176933986878735849e-01 2.472126502840545081e-03 1.466907666820352341e-01 -4.238515532837028310e-01 -3.352213687942564024e-01 2.311763025734483445e-01 -3.065473846792565737e-02 -2.563826238582603279e-01 2.871521408390681485e-02 9.086246267618350303e-02 -1.230286752355342628e-01 -1.874892909739188374e-01 1.358838108031377827e-02 1.635464126610259861e-01 1.060151347025410917e-01 -1.443870943631931358e-01 2.526663111920615101e-01 2.738113758080591986e-01 2.220174976419786450e-02 -1.819163361982498173e-01 8.922244598947051686e-02 1.862538538668472576e-01 -4.814035114134786880e-02 -2.211068899961757261e-01 -3.529489356250803955e-01 -1.648816321993262501e-01 -8.212172822387821258e-02 1.007980231739507432e-01 -2.199402321467111010e-01 2.748407548800829714e-01 -1.039222907185238104e-01 2.146364330500407092e-01 -9.054187759385980139e-02 -2.709947498591721571e-01 -3.329351650071261104e-01 -8.101642384077642478e-02 -1.773875104430095717e-01 -4.575605299654245672e-01
2.834149809315597013e-01 -3.082047572186303319e-01 -3.456002371030512110e-01 2.246977051643970213e-01 -7.207575769161651824e-02 -4.895889794443307741e-01 3.249141708106248472e-01 4.700978248274455262e-02 2.601006005720144509e-01 -4.005727243045698049e-01 -4.273633236850525319e-01 -2.997465733130780241e-01 3.100463175656372194e-01 2.294452699127165485e-01 1.326408372319362317e-01 2.849268347641920052e-01 3.622859366652787516e-01 -2.268352291568696832e-01 -1.235881917013967324e-01 -1.880204420196822657e-01 -2.086442361227030251e-01 -1.186045333761721332e-01 -5.418132769747581179e-01 2.662000987668464158e-01 1.844275549320710805e-01 -2.088705255552193440e-01 -2.308513478809243458e-01 4.157914295360541912e-01 -9.617125302767302875e-02 -6.690718303049349169e-02 -2.337756851716077666e-01 4.448455343730921968e-02 -3.602893179778640098e-01 1.671883774974669556e-01 1.280258356268658415e-01 -9.895448413427442025e-02 8.635315644396215906e-02 4.084613710449006563e-01 2.824352145894310981e-02 1.030134945722583906e-01 2.744707460121826800e-02 -2.595453227106147009e-01 -1.229806328167495494e-01 7.762197354496488955e-02 -1.709915752979390968e-01 -1.738690203966537506e-01 -2.636319624620769297e-01 2.250939153836334083e-01
