-1.383533293447715418e-01 -3.325487193664933977e-02 -1.245376055620929512e-01 -7.283085994712404365e-02 -3.194769932719503797e-02 2.507473859013028550e-01 -7.778844691143654844e-02 -2.054709464937179708e-01 -2.591948844762861914e-02 -1.614733652346463932e-01 5.199368172292679474e-02 -6.357767257917804060e-02 -2.348646048879970138e-01 2.989370136432212277e-02 7.097579882990608102e-02 -3.402714865611056183e-02 2.089371625109105457e-01 8.271272066890555941e-02 1.185560832698253353e-01 -1.210952623233986225e-01
1.862357743677980123e-03 1.245933490596833615e-01 -2.063390765421780071e-01 -1.188294614385171505e-01 -2.533889025061874523e-01 1.587440094947951963e-01 -1.326476734330191420e-01 1.886349018447060211e-01 5.744309045117156065e-02 -1.349773208892767473e-01 -9.440742474428762132e-02 -1.318425353227900276e-01 1.275496125505840017e-01 -2.111050802312373631e-01 1.542939250929165618e-01 -1.012931538920771729e-01 -7.204318966310860328e-02 5.063220581993452957e-02 6.555811276917224151e-02 -1.366480976142633863e-01
1.106632775795179102e-01 -1.343992392563080895e-01 2.495579572691055958e-01 -2.066801217567716120e-01 2.086879547808106472e-01 -1.702595261018108597e-01 9.300337404963693322e-02 8.131832308912705087e-02 -9.348957800540019791e-02 4.207650983640171677e-02 -1.508105959686615039e-01 -1.874125694513196494e-01 -1.993069224056468261e-02 3.910954831565620349e-02 7.463783462991011031e-02 -2.089171522379444923e-01 8.244524899810748431e-02 -2.971211174127955101e-02 -1.939791157011080958e-01 2.317156406160174043e-01
3.711472412079482573e-04 -3.143650114942837803e-02 3.663146277841939497e-02 -1.682585321138009293e-01 9.098200236989636980e-03 2.412078750265409799e-01 -6.018783506781777773e-03 2.125270275706280521e-01 8.971881236580716082e-03 2.783864672269677487e-01 2.176678993741825996e-01 -1.586873242559194708e-01 -6.167289369412833067e-02 2.281953342483453717e-01 -2.394302137351390358e-01 9.795153743766532584e-02 1.913564518214311838e-01 -1.583745710392000794e-01 -9.448897083428464683e-02 -2.802923426166143567e-02
-1.336861459524151807e-01 -5.440284187012446593e-02 -4.213731784373209860e-02 4.237380722590051996e-02 1.684766533401218791e-01 -6.509121875062819085e-02 4.030649314106484610e-03 -1.782545526366134114e-01 7.597718821114637054e-03 2.075058789757778521e-01 -3.660612439660038825e-02 1.273387060061538234e-01 2.118278629991270923e-01 -1.955962319451573506e-01 1.199170637323973138e-01 -2.535948144535792315e-01 -9.839749721322522957e-02 1.471734978016757678e-01 1.983742664346549445e-01 -1.511468786970536216e-01
-1.878219038924520690e-01 -2.034988926589407499e-01 2.066077587985001296e-01 -1.342459777337737525e-01 1.232379944320774329e-01 1.006818724946448446e-01 4.435113270527775431e-02 1.709486535998064050e-01 1.372663682830548709e-02 -2.246340372038158339e-01 6.752337859787933827e-02 2.167572646355639399e-01 9.548965077574106397e-02 1.513155463297506387e-01 1.874874198841096073e-01 1.299769478648906962e-01 -4.230128801244168596e-02 1.710822490729493328e-01 1.185672777822265184e-01 8.960092771894717645e-03
9.461130377851079132e-02 -1.275923184255099430e-01 9.828543575552733946e-02 1.963188027190172769e-01 2.000165251818881995e-01 1.843656587605473351e-01 -1.467308642767693183e-01 3.439506961606673963e-02 1.015875992882451784e-01 -2.983387743529955505e-02 1.271950077167251095e-03 -1.791385064090363355e-01 1.739493483578797572e-01 7.187442981638782202e-02 -4.513916486432541925e-02 1.285342097152287200e-01 8.801222293583894907e-02 -2.424042205285275794e-02 1.002057474874691323e-01 2.258539242314215045e-01
2.079478809111738047e-01 1.418501808590629798e-01 1.893070454355529064e-02 -1.793176351591043438e-01 9.709164037553005833e-02 3.161873112082879550e-02 -9.748140912464850483e-02 2.280437117325701327e-02 2.675245971262666528e-02 -1.783853869843352036e-01 -6.425513580659708568e-02 1.004879400064700723e-01 -2.263004590303133723e-01 4.192573394200271170e-02 1.512337320067671798e-01 1.634944551781849775e-01 -2.638073186318191654e-01 8.559579382387075275e-02 -7.680557712076369059e-02 -3.578754206755235812e-02
-9.447900114367874247e-02 -5.517511240686791274e-02 -1.783890364018864694e-01 -2.360990974362298100e-01 -1.003265762337374467e-01 9.481556526130480167e-02 -2.204424745512996442e-02 -1.358843961217993390e-01 1.686952384712149811e-01 -1.241094301042761083e-01 -2.849771752986406947e-01 -5.114024868194042700e-02 -2.215610599067998343e-01 -1.844992904203779649e-01 -1.587998052381035807e-01 1.064291198040525216e-01 -4.054051115386719112e-02 -1.256940375952730893e-02 1.030967901174316970e-01 6.342506625243345131e-02
1.697984322541009894e-01 -1.221738317124139994e-01 -8.740999936678933713e-02 -1.915321258248110087e-02 9.773707179415015711e-02 -1.230775120800759181e-01 6.270723941498757004e-02 2.857107742994288713e-01 2.539127028137584952e-01 -2.034688845236636845e-01 -7.679712476405459176e-02 -1.087062292421212412e-01 -9.888693057481320881e-02 -5.791758508159754876e-02 -1.579323813839611235e-01 -1.657923761386777550e-01 -2.249511044246184713e-02 2.198215570182906475e-01 5.558237841607042290e-02 -2.628225346287903219e-02
-2.217497518721640026e-01 2.639619853036464514e-01 7.955096526941869695e-02 -1.589016796984455901e-02 7.009045617196540956e-02 -1.318603998904797348e-01 -2.038954889884044552e-01 9.200589276644556558e-02 -2.764753696495980684e-01 1.145730210555445938e-01 1.385477601175806039e-01 1.710211471970995156e-01 1.071936865785719228e-01 -2.269808247004577451e-01 -9.257063234459157741e-02 -1.019121898645462543e-01 1.788060458746024428e-01 1.683076703953697295e-01 1.872678901455840372e-01 -5.288356251658410390e-02
7.344594707285477531e-02 1.585789383776393113e-01 -1.584274542804499364e-01 2.012664888479736569e-01 -1.572860661231621771e-01 2.478596556642947424e-01 2.280055462216295514e-01 1.806185777786524851e-02 -8.685101141130129043e-02 1.901885908793199409e-01 -6.189302230483753609e-02 -1.849817968917688293e-01 1.620952115125378901e-01 -1.357777189768777926e-01 -2.068278802605936495e-01 -6.684884463225154727e-02 -8.378834367776509529e-02 2.015017312678587247e-01 -2.479153775724624587e-01 2.440298127033930231e-01
-1.548674319703777658e-03 8.418651425206580274e-02 9.777714718809939198e-02 -1.635256814108882600e-03 1.662796956885618793e-01 6.235600198883869960e-02 -2.629224711702847495e-02 2.431714765729210970e-01 1.150958284420881411e-01 2.039127141482106886e-01 -8.888933902123623276e-02 -8.677648570472933087e-02 -9.381771983684505933e-02 1.138723823508691786e-02 2.547157751327688846e-01 -1.854689842813909695e-01 -1.542368055867557319e-01 -1.667027658716723204e-01 -2.542425892451725955e-02 1.281259932725763336e-02
1.111272876293527556e-01 2.059248350630395463e-01 -1.157058756505488645e-01 -2.802820118794268830e-02 1.117364891321654674e-01 2.634636662709631261e-01 -1.039237628958010057e-01 -1.211775980887910831e-01 -2.103742373996911330e-01 1.195401899096553422e-01 -2.476940978173314545e-01 1.650793345785904476e-01 1.766068379467904959e-01 -8.186939327752991435e-02 -1.911528228351420666e-01 -1.331579299822305273e-03 -6.501834791026644966e-02 2.004858499974820629e-01 2.456457216257341147e-01 -6.866624581918732984e-02
-6.347951737447671272e-02 9.145487045368287660e-02 -1.172792608579254353e-01 -4.272552862423673048e-02 2.171230785729267032e-01 -7.372903213634809938e-02 7.314865267795962744e-02 -1.362530161919266736e-01 -1.410995927821649676e-01 1.041229084798842713e-01 -1.293267376836243487e-01 8.113535407902536245e-02 1.711899168824537049e-02 6.383659578284896219e-02 -5.847511833693065653e-03 8.258485749881379345e-02 5.069070554880311663e-02 3.652544526557256754e-02 -1.320585682129676308e-01 -5.888633434507413444e-02
1.174454466254066659e-01 -1.474849322067745550e-01 -3.828768093721925808e-02 -1.506567345813241698e-01 -1.924342055420399933e-01 2.289286661154729396e-01 -4.062757788986260526e-02 -1.228406195598974286e-02 -2.627387386278250969e-01 1.322478577670344879e-01 1.023880134977479817e-01 2.269855231551017039e-01 9.707889420557962168e-02 2.520337185452898310e-01 5.386013534130799224e-02 -1.714086427633509657e-01 -1.851823923923056336e-01 4.373507689143970299e-04 1.060182429703921958e-01 2.070082848744899950e-01
9.703211399551106564e-02 -2.155421760761782046e-01 -6.958599719887093027e-02 -4.920717393279640944e-02 -9.244614189675795513e-02 -1.632515448768151189e-01 2.748165669682529066e-01 1.680396914317649759e-01 -1.750130632227700879e-03 9.920654215900776007e-02 -5.852476345112625489e-02 1.352733733144116657e-01 -1.650897451092888102e-01 3.894908337441067153e-02 1.995471908005667649e-01 7.386583547485425782e-02 1.141427189409714854e-01 1.556001600974473154e-01 8.975267643691767216e-02 -6.561808136771751787e-02
-2.087084236952206975e-02 -1.085144245765264637e-01 -1.052369099078124814e-01 2.093407699918622966e-01 2.411181214437292941e-01 1.094114732532412565e-01 -1.733933508591387340e-01 9.910649277220574815e-02 -1.322161196523836402e-01 -2.118302976353708400e-01 2.565933287782601879e-01 -1.318923792976365028e-01 1.742037221187520690e-01 -9.216734045374373394e-03 8.332342722734838170e-02 9.930187185433274333e-02 -1.165685847463665548e-01 1.698473979519821708e-01 1.962467160235066288e-01 1.771012214589025302e-01
5.554797667656678067e-02 -8.636037577928887266e-02 2.145639935509798812e-01 -1.319700925455021268e-01 -1.159905071323583114e-01 3.085012659579784988e-01 1.922141608421162606e-01 -1.674180705067117303e-01 -1.226662331037942227e-01 2.388263213459387302e-01 -2.446433923245872333e-01 -1.397549791730713642e-01 1.440008862182090843e-01 -1.284987587684747745e-01 -9.647556618971188380e-02 2.049730289099299385e-01 1.620650848235339614e-01 9.195898669376022239e-02 9.890588549902233628e-02 -9.880306222476488431e-02
-3.528631283819793490e-02 -7.493827994493461320e-02 2.507293766182059347e-01 -1.531551305407654606e-01 -4.247921692022817858e-02 -1.766752521141087481e-02 1.712883752090133826e-01 1.778764645192675298e-01 1.907936083019032003e-01 -1.288092348048701027e-02 1.741277145722813779e-01 1.879262610473743725e-02 9.367281076372566129e-03 -1.273861138752500899e-01 3.682456859380396630e-02 -4.217045607513195127e-02 2.296641474425027696e-01 -1.455127600759781141e-02 1.394201261640929390e-01 1.523464882304567114e-01
2.175682685079996515e-01 2.071627274521325723e-01 2.724783487465480825e-01 4.315179092369885588e-02 -1.448772378928319948e-01 -7.178728324644023662e-02 3.631612984298795976e-02 -1.061969694028932695e-02 4.288487068649988153e-03 -8.277143717500998199e-02 8.805747514060241476e-02 1.231706467342757183e-01 -1.490107374663156847e-01 -2.002032307154844315e-01 2.410426505414584031e-01 1.844127979027773978e-01 -5.316476224314174714e-02 -1.299285458966531748e-01 1.878556939524248792e-01 -7.392939947598374528e-02
-2.460805052497121448e-01 -2.569201427852190744e-01 1.245680043740848980e-01 1.938845014541227818e-01 -1.634738495683008275e-01 -5.276038690303406706e-03 -1.016754634375722222e-01 6.992550326657291648e-02 -1.577599713512134738e-01 2.184001794869641633e-01 -1.268051877970825803e-01 1.287646198077358195e-01 -2.666833865651330737e-01 1.044599747927902611e-01 1.808188548387171801e-01 1.343753605343660784e-01 -5.306335489707657282e-02 2.187513237622980000e-01 -1.480027062938641357e-02 9.878273287503186451e-02
2.655430092066403680e-01 5.247097583392901221e-02 2.215325690740199971e-01 5.190964443964430491e-02 1.656524451601406045e-01 1.233895880012579743e-01 -4.195239968104422820e-04 -9.189976052169426812e-02 2.217093503064439808e-01 2.283197125338315148e-01 -4.620362402891636799e-02 1.612484299143199934e-02 2.985966321294299120e-02 1.553295749610483084e-02 7.474499362072323239e-02 -3.108748210274564494e-02 -9.948198324851112440e-02 6.044692621950898716e-03 -7.607786437339543462e-02 2.025318832519732437e-01
1.308969693248966115e-01 6.413599766694989823e-02 1.306110415982957886e-02 -7.323662093092084269e-02 -1.311460847805402952e-01 7.268112135466611723e-02 -4.518290443991813260e-02 -2.454177670053811489e-02 -1.534745143546668578e-01 8.080986360889008679e-02 7.561022783782832268e-02 -2.209771784123289451e-01 1.269655296492427574e-02 -1.628912790644540254e-01 -4.348395174445229133e-02 -8.184952209640207477e-02 -1.578988787230381219e-01 -1.443548229228113766e-01 1.796246012633715972e-01 -2.035826218096238038e-01
-2.130957961910576182e-01 1.468816584598860997e-01 -1.803812531089443727e-02 -7.292428157925540111e-02 1.594284789323647533e-01 1.435280328213316137e-01 -6.832281425820475873e-02 -2.430039524247543797e-02 1.715687831695065502e-01 9.766663303020857445e-02 -1.922412456154222807e-02 2.339261328496321513e-01 -5.648931104075231857e-02 1.652263728134490961e-01 -1.279513995342845545e-01 4.991133470623235896e-02 2.036003985983718123e-01 -1.629014361391874777e-01 -3.419310567268631085e-02 2.082158387797440058e-01
-1.965436654120008841e-01 2.713877156024482318e-01 2.752825446681321231e-01 -9.086774981031413290e-02 -2.615802678718144869e-01 8.734609025421070927e-02 -1.636391531547013445e-01 -1.963584390056795081e-01 -1.536915703573103198e-01 -3.496437051219139502e-02 -2.159810593082778507e-01 -1.861638242527990095e-01 -2.830746987860858002e-02 1.134351468574281985e-01 -1.556113149375413229e-01 -9.631657827595863086e-02 -1.296120459249244794e-01 2.262865536880587503e-01 1.742875215003949207e-01 -1.506573565805409409e-01
1.608878261348442584e-01 -2.348884484909565251e-01 2.755686388743636694e-01 -2.427790377221588358e-01 1.940113628204323815e-01 2.649950153157550892e-01 1.268249486521842717e-01 1.374154799476654532e-01 1.227666986143004235e-01 -3.264264862649417231e-02 5.535459542768168123e-02 -3.788973291928648089e-04 -1.899628068886686227e-01 1.356865331103042083e-01 3.327382153660102954e-02 -1.981439005541727749e-01 1.688307382676915436e-01 -3.182407386427771323e-02 -1.988186421691892913e-01 -2.130696978952157650e-01
-1.836720017202880251e-01 1.058696394896583848e-01 6.169327132720808099e-02 -1.937064372652936087e-02 -7.936159882370129315e-02 1.384368271207166157e-02 -2.179753468177065001e-01 -1.787288290992250506e-01 9.720263031518636132e-02 6.785865860692215715e-03 8.879828568697199775e-02 -4.694489583332257104e-02 5.977468958139665195e-02 2.070206328994843858e-01 -1.573598234816578345e-02 -2.665315959288510617e-01 -2.807451704405614090e-01 -4.650522448144373683e-02 1.990186301619614739e-01 2.186745366475315588e-01
8.004052286585094933e-02 2.492412405894451136e-02 -1.196791612630368901e-01 3.217021855489168858e-02 1.649674237951892497e-02 -1.751653174702925142e-01 2.598596858663122511e-01 -1.627329691162207881e-01 -1.881881609956770340e-01 -9.927657574940113028e-02 1.193695733961369111e-02 1.341028042372029161e-01 -5.627627152636162020e-03 -1.752136931298481637e-01 -4.762291838341770750e-02 -2.262871673691669028e-01 -9.364257031634826145e-02 -1.076780933270272272e-01 4.487452184058045995e-02 1.123638680843854903e-01
-2.220531971131855242e-01 -1.816157192527834141e-01 -2.309231340867745341e-01 -4.892803447523699084e-02 1.887306555186642754e-01 1.659885712371331548e-02 2.238129632059461527e-01 -1.171550946858867515e-01 8.277918286020620464e-02 6.330152716824115344e-02 -2.620719117985711444e-01 1.905917037291350868e-01 -1.325457718604076962e-01 -1.499165242408206644e-01 4.818887734174222975e-02 -4.681482125158272639e-02 1.196357603936440972e-01 1.919098311750654373e-01 7.768338317999654019e-02 -1.964800637542331307e-01
1.043653799993211062e-01 6.112915111058295908e-02 -1.772330915269301754e-01 -2.449898496664404401e-01 -1.744821291187029777e-01 -1.615414281875638403e-01 2.417940782876632985e-02 1.829960410593716169e-01 1.026681349249398273e-01 1.486607255474890199e-01 -1.138765094693608565e-01 9.109069237956272935e-02 -6.911486124314045187e-02 -3.889362157213752808e-02 2.818549154082581887e-01 1.611246875007650917e-02 2.386628867960277275e-02 1.774234715437159743e-02 8.640940366384776417e-02 -7.850579932489440416e-02
1.630481291809099675e-01 -9.462572611993906591e-02 -4.920716535095753102e-02 -2.308423455803693680e-01 -1.139211736040807721e-01 -1.868834232901559617e-02 -1.451602000413513005e-01 7.223599287922261025e-02 -9.330295075307351582e-02 -2.119289055481026751e-01 -3.277518754487891706e-02 1.754069418814249437e-01 1.734299903330098758e-01 -3.556737146486822765e-02 -2.000195238596996494e-01 -4.112153268691667862e-02 1.859801682888911623e-01 7.892273435958986616e-02 1.750549137769773222e-01 7.455629581193969069e-02
1.408495649982110520e-01 1.440362071398244848e-01 5.076754030257030204e-02 1.977636486001459748e-01 -8.465714483873842955e-02 1.538833645774741743e-01 -3.844591421565967532e-02 -1.379137358645097788e-01 -1.677543302747725729e-01 1.939648394680637267e-01 6.163814140178316275e-02 5.115305084561994758e-02 -1.302562345433251612e-01 2.403807124774081372e-01 -9.839919751108390511e-02 -2.019271809966263487e-01 1.371098323715087552e-01 -1.304378403368091632e-01 -2.579912731284424443e-01 1.845721151556641015e-01
9.973583860959603364e-02 1.931639990862923234e-02 8.052566656513213128e-02 1.999472432803509614e-01 4.724342821967250639e-02 2.644339691539699874e-02 9.524209873091597127e-04 1.130103719269735935e-01 -3.402620190027292463e-02 3.298459130059594457e-02 -3.185706475584667435e-02 -1.922891824046188969e-01 -1.149515779001624993e-01 -1.636722680128349094e-01 8.230277995600285279e-02 -2.411518242714306981e-01 1.516799980444475948e-01 3.765921675713707756e-02 3.253190146938898537e-03 5.383979181100718991e-02
-1.270086439082074858e-01 1.355435040428147053e-01 7.239632438584929497e-02 -2.627711150872942894e-02 -2.324383719537335968e-01 3.036911753648884743e-02 -2.552330127199460841e-01 5.659502244028605765e-03 1.523786989626319532e-01 -7.847812725836862680e-02 3.848536570019781694e-02 2.298339602935094705e-01 1.318749945779928157e-01 -1.739005295370994186e-01 2.099497866911402832e-01 -4.414504316402141637e-02 1.339532975819593408e-01 -1.761745703552546061e-02 -2.346918475830859774e-01 1.934074114149681445e-01
-1.590560786247784408e-01 -3.061962434598330517e-03 3.379899960510856626e-03 1.428666695301091805e-01 -1.528564792354645818e-01 2.590367950194851776e-01 1.354819041351800757e-01 -1.661629747149895864e-01 -1.441485022890919843e-01 -1.254035818426196824e-01 1.536793571258401048e-01 1.533641426134547958e-01 -1.988628588253014695e-01 -1.796377589684424458e-01 -2.443513075140661128e-01 1.971278644193667773e-01 -9.429076399426240818e-02 2.622494897249983414e-01 4.284607940893812167e-02 -1.033593892672015346e-01
1.258348717864793409e-01 1.513486550692042486e-02 -1.328245668031263760e-01 7.968309560458082530e-02 1.077957430317612042e-01 1.062042860431248181e-01 1.978196199094136021e-01 7.460058606131184100e-02 1.636664672537313237e-01 1.516091386476740577e-01 8.166271714510990598e-02 -1.005352709768733838e-01 -5.409561355663987381e-02 2.247892105777980071e-02 -1.045894704662189423e-01 6.590524525357260854e-02 -2.251086643894497641e-01 -4.084638828975058894e-02 1.970849065985685322e-01 -1.078812808308710347e-01
1.956889568965475001e-01 1.167871209511649883e-01 -1.240427203526763417e-01 -5.507453997764513026e-02 1.091062136263891424e-01 -7.822891799718718897e-02 -1.669669458566486187e-01 1.393146016617693161e-01 4.781158051421722371e-02 4.043604090600076001e-02 4.343564900722311772e-02 1.694155253574369246e-01 -2.409056635249005873e-01 1.970049380916769621e-01 2.073811196150892600e-01 3.090945665425547887e-03 2.087158045240829762e-01 2.298085309437712109e-01 9.319260164397073776e-02 -1.042618062445652832e-01
1.235533101438765907e-01 2.379615768422043975e-01 -1.287231672476114586e-01 -5.596159793407510380e-02 -6.832301130316464910e-02 -5.589850564737786770e-02 -1.788441750802362840e-01 -1.902975186842086608e-01 1.998319722639936014e-01 -5.927799878509933725e-04 -8.979514830415087634e-02 1.168762024547728845e-01 1.769976679522102525e-01 -7.009081538889525009e-02 3.132871564877757337e-02 1.217735140979292474e-01 5.188870936222191727e-02 4.492716193738878483e-02 7.908626887481594314e-02 2.229174150693938317e-01
2.036638898718463320e-01 1.405246926086718973e-01 7.113909976152232861e-02 6.134953843206963214e-02 -7.123024893146784331e-02 1.646093085227193775e-01 1.999364993453015271e-01 5.620757542016014546e-02 1.257423177741047171e-01 1.074406296538107097e-01 2.687872284231547781e-01 -1.569968762830108513e-02 -8.153706711656012740e-02 3.384584367594697940e-02 -1.447985988564911841e-01 -2.182178479842247776e-01 -1.521182635632696012e-01 1.099313669516159692e-01 -1.725470443563942302e-01 9.828157518046701235e-02
8.682129844066820146e-03 -6.213717135075937786e-02 -2.027356585859985821e-02 -2.987232132617584357e-01 -1.659709116009368268e-01 -1.323195638561459886e-01 -8.610622491023824099e-02 -2.492552567164890154e-01 -3.115887280075793977e-02 3.273592327999104434e-02 3.191995077514756668e-02 -2.018185189264585511e-01 -1.962119202840980070e-01 -6.328842513325615149e-02 -1.715608508815668898e-01 1.837784348274048019e-01 8.198860759452605840e-02 2.182311133209839937e-01 2.216561463910141916e-01 1.995297353881241020e-01
-1.625422137969781688e-01 -5.928667865413902310e-02 1.324703029933559373e-01 -2.930417754498598204e-01 1.322665259929491355e-01 1.365365671081533380e-02 3.403271684507332140e-02 1.378986630121929458e-01 -1.009071859209154098e-01 1.116926428838705548e-01 2.199716583200410081e-01 -9.490608340339835858e-02 -2.151591636464922352e-01 -2.105201263538406253e-01 -2.947117438255052527e-02 7.705085984897790119e-02 -9.514560650604396430e-02 -1.508431525930908623e-01 -1.243041221936263124e-01 1.924830688204035023e-01
-1.113367016225150635e-01 -8.710648908807538948e-02 1.237925488874533630e-01 -2.722199634759684544e-02 -1.103962507285487782e-01 3.970969670385363082e-02 -1.949525465252982190e-02 1.279026625822334527e-02 -1.683051866248378714e-01 -1.937927570745301697e-01 3.206238535837242498e-01 -1.755055554121643380e-01 -2.045933097342636162e-02 1.286564529532418233e-01 1.310726551380136072e-02 -1.670999279103567714e-01 1.782082651918611704e-01 2.805619008301650230e-01 4.708463912230993059e-02 -1.959309173628637213e-01
1.337960557641930948e-01 1.018994281296618926e-01 -5.638655443736114575e-02 -1.510633942621878445e-01 1.557624353962624164e-01 -9.202535178164501783e-02 -4.107387283828577151e-02 -1.341704686584070938e-01 8.608380203552426502e-02 -7.138897497582660789e-02 1.208159402227541035e-01 6.942451981585218146e-02 6.851568997108331560e-02 1.191752049178892991e-01 7.443793566675013795e-02 2.412165836008109063e-02 -6.759116898920736194e-02 2.553702850143533265e-01 -1.700564021300491058e-01 3.222724824222478884e-02
-1.442642201573878791e-01 2.473818230777433680e-01 -1.537950888799136662e-01 1.212723755278390519e-01 -4.965713348220998115e-03 1.741051285793087933e-01 2.153903120280508676e-01 1.685937041628181865e-01 -1.965945955207246687e-01 1.545014038367319431e-01 1.232421146678681495e-01 -3.527410589018910997e-02 -1.015056907437844047e-01 -8.595601358524947166e-03 1.740285654846433216e-01 2.039912620412805688e-01 -2.344977392670686278e-01 -1.808822401120792622e-01 -1.908203933321123980e-01 -3.074860633436404464e-03
1.672864107152363944e-01 -4.291562617432321397e-02 -2.409367822106436574e-01 -1.225455311812853471e-01 7.931705424588669784e-02 1.357302674442782964e-01 1.880676753881765084e-01 -1.388839282979306977e-01 2.569637390039692382e-01 1.041446203437048218e-01 -1.147335159521856024e-01 -4.328958337661505118e-02 -2.501475589827825696e-02 -1.988856458077065403e-01 1.752332653519759198e-01 -1.742802976536816650e-01 -1.001292267471744352e-01 1.300432767138109680e-01 -1.163540301951095923e-01 1.571887129281566431e-01
-3.092525860213893654e-03 -2.573317826993946067e-01 3.916271980055838903e-02 -1.604863241249130934e-01 -1.761580023005571149e-02 1.950482585112506620e-02 -2.379006069000438039e-01 -2.030641388434972217e-01 -1.385017204013601344e-01 1.166763053097708419e-01 4.593325493913835711e-02 -1.789650420282036247e-01 1.706995006531177583e-01 -2.650314507657122731e-01 9.409103978297295168e-02 1.979181983344000528e-01 -4.090356079580839688e-02 9.986611529491012940e-02 -8.311912466439524971e-02 -6.328841967324777551e-02
8.066804674049636581e-02 1.086028953974737810e-01 7.013355598262659141e-02 4.444724981205015052e-02 1.580971091359535396e-01 -9.255495363456421598e-02 -1.591879328791994119e-01 1.166001366210390050e-01 -1.343978283604392587e-01 2.018383856831602319e-01 2.315935382189178993e-01 1.776563218267471489e-01 -2.400601591004305480e-01 1.329345456446631019e-02 6.540088444841211934e-02 -6.668651943806867821e-02 1.884081889210357796e-01 -7.631820165291826330e-02 3.349807264754631198e-03 1.350176003221962573e-01
