4.796349908314503571e-03 -6.336917752327296885e-03 1.147869118567453328e-01 -1.363882338780511017e-01 1.313895214246085241e-01 4.210380823943914164e-02 -1.669685089269322964e-01 -1.109038350099253306e-01 1.316830965746276609e-02 -1.554185116112136722e-01 -1.022846173210071319e-01 -1.842549016811164120e-01 -2.511183656129986619e-01 -1.803938912404434436e-01 -2.150708191323059404e-01 -1.922081215488495587e-01 -7.617881485852673329e-02 -9.544655371209900818e-02 -2.619518927289120613e-01 1.050201047768268142e-01
-1.211780275815521474e-01 1.895258624233988054e-01 2.354096831798570821e-01 -4.326457940523011775e-02 1.178558311025904443e-01 -9.220942002607505905e-02 -7.075373314545962966e-02 9.985603818981199364e-02 6.050292921702626198e-02 1.892243145212104127e-01 -1.379922885621550632e-01 1.230130639993104735e-01 1.883459702976805483e-01 8.923396919812939809e-02 2.172950663640273172e-01 -1.720807005092421238e-01 6.531553466596308477e-02 1.223608022384777838e-01 1.190540527914058927e-01 -2.268268859087832767e-01
1.922824741409361049e-01 -3.922919853251863320e-02 1.773102815291054818e-02 1.966000978984386860e-01 1.207019405168512083e-01 3.505429319273901945e-02 4.346781880463945064e-02 -1.836034778062001216e-01 4.031528329021738521e-02 -2.289672563029658825e-01 1.228477802907481514e-01 -9.707213529895962478e-02 -2.089938695741372643e-01 -4.095821685099348269e-03 1.669183753946441584e-01 -1.066888139609147856e-01 -5.048700888308690904e-02 -4.717409481063211674e-02 3.442062987088981285e-02 -1.524283864208636208e-01
-2.005719156775208067e-01 1.929147466823046553e-01 1.978317461923327636e-01 -1.530027325228978663e-01 -2.321910063473729136e-01 1.043756055081357242e-01 -3.183048857673675403e-01 1.005848760044778523e-01 1.827060532523348824e-01 -1.684356064087465521e-01 1.430608811891003473e-01 2.326421126043804258e-02 -5.335804859371633124e-02 1.176549083175315036e-01 -5.554490529462757092e-02 9.490722863968735490e-02 3.024703162224829933e-01 -5.157849615477681088e-02 1.148657742066896692e-01 2.445793382466686372e-02
2.591275299219447104e-01 5.625446434586631878e-02 3.059459081644977721e-02 -1.691799713293577201e-01 -1.729366811110864821e-02 -1.368451383049306969e-01 1.941159809149469173e-01 -9.892434698976396157e-02 1.192305343958900282e-01 -1.050846976130344473e-01 -1.629609869608475148e-01 -1.398940872959177940e-02 1.203543984194721528e-01 -2.468828817253841956e-01 1.792832196356630714e-01 -1.054839131704285449e-01 -2.594591608617849987e-01 -1.059570319922320675e-01 4.505385023777520870e-02 -4.449805153803670921e-02
-8.426176988900445364e-02 -9.351095591787339512e-02 -5.993051747198571005e-02 -1.614986078241520406e-01 1.539098831526740929e-01 5.448593762873710916e-02 -7.379089599617119632e-02 -4.139209929753772527e-02 -1.797709938623812675e-01 -1.063265393325272829e-03 1.816915630450951780e-01 -1.901071381809550931e-01 2.094331966819810986e-01 -1.893282582954994298e-02 -2.952044796367328180e-02 -1.642706006606008129e-01 -2.786395356844092661e-02 1.437101765924098939e-01 -2.237309146343043342e-01 -2.643833320571736811e-01
-1.780246893366333738e-01 -2.259577292385880898e-02 2.048972253663398080e-01 3.030801418190564103e-02 -8.864882507420044494e-03 -1.742956172004190563e-01 7.416062590802077747e-02 -2.361659990165199396e-01 1.284172213799182616e-01 -1.193578214992506020e-01 3.501242260281357821e-02 -1.483653409578070126e-01 1.099310087606479303e-01 1.279707117809202599e-01 1.133239608294525635e-01 4.416820263297492610e-02 -1.210016593847488137e-01 -8.491105002858438666e-02 1.891822260300795866e-01 1.167685880049370573e-01
-1.318742159900584132e-01 -3.045691612723685493e-01 -1.363496383965388525e-01 -1.679199160044048400e-01 1.120656928224525728e-01 -1.590298407967592753e-01 1.770796625662736656e-01 5.493791913971440843e-02 1.789196243085629523e-01 -1.924565008646176301e-01 -7.633393693444046058e-02 1.740634490181500460e-01 2.126922979238333733e-01 -9.562652605417529261e-02 4.160631734900590434e-02 1.226696039027279639e-01 5.689451985838926001e-02 5.075602596618361551e-02 4.618965048927420325e-02 3.958508018182496646e-02
1.056192932658204936e-01 2.450944339215797574e-01 2.274500494828028685e-01 4.802946624644974238e-02 1.603611820825957546e-01 1.654780608331936076e-01 6.587802648969430519e-02 -5.660501127984675883e-03 2.834813612331671395e-01 5.933190137600261038e-02 -8.243940097490698449e-02 2.420053217188170569e-01 8.315988900882177737e-02 -2.366242632274518504e-02 1.652603169346305023e-01 -8.309502209906850789e-02 2.134479480132136231e-01 2.103363865642230990e-01 -6.143396449359923850e-02 1.445486517286283246e-01
-6.079354249187528259e-02 1.125174016512721364e-01 -1.975852543986809755e-03 1.303599951691095105e-01 -2.596149953917292405e-02 -1.530584653490757729e-01 -1.687417022657883639e-02 -1.539073601819940795e-01 1.476591221904546003e-01 -1.077765323047058521e-01 -4.721799017370590518e-02 -1.471859733751041677e-01 5.354951234459781606e-02 -1.567036915995565979e-02 -3.829878116434568686e-02 -1.525170740066590369e-01 -2.340327898097832870e-01 -1.409441921483564897e-01 1.378670977873508174e-01 -2.185848383281470686e-01
-1.144572434629718000e-01 1.238121459355777110e-01 6.703427089712873932e-02 -6.138719958158597029e-02 -1.320523339455055845e-01 4.707783520395630167e-02 6.095612051778212526e-02 -3.496272492301853024e-02 2.120368575126691801e-01 1.518152833515943601e-01 1.117693662831692747e-01 8.338583511488352473e-02 -1.859015629121346658e-01 3.108095749513702447e-02 -8.139297333416716310e-03 7.683863488656780816e-02 1.155123392615663158e-01 7.246059219011927177e-02 1.295751340634427595e-01 -1.460271275438147776e-01
-1.394916376203605701e-01 -2.264739298678509760e-01 3.697472161165418769e-02 1.432854330826051625e-01 -1.389815277532256144e-01 6.557674551870829038e-02 -6.667611677918201807e-02 1.319604752242982959e-01 1.609105540377865629e-01 3.200312942886839734e-02 4.973075510580310214e-03 -2.019374794658792827e-01 -7.719027867269794875e-03 2.096676678656933801e-01 5.616793763297086434e-02 -2.187635052232156097e-01 -1.877983687868882423e-01 1.006362338303131709e-01 -5.990067058037150394e-02 -2.424876791441964996e-01
1.377144086936725742e-01 1.902455559303764809e-01 1.801782008112299549e-01 -3.454360487643808042e-02 -2.238346001485390091e-01 -1.459433326653011287e-01 1.411136985541979194e-01 1.280331261017698952e-01 -3.659104805238080210e-02 -2.068528957743531183e-01 1.402909335430073401e-01 -1.872913978552536718e-01 -2.217796134973309130e-01 -1.925371193222356614e-01 1.356829957077249904e-01 1.772429720727535796e-01 1.508205335903394506e-01 1.332285770499147537e-01 1.420392594219338500e-01 1.997794723236279851e-02
-9.169016589789205640e-02 1.391034825619473503e-01 1.801441672948745631e-01 -1.553604331267859073e-01 6.649809195839637144e-02 -2.868793742263789914e-01 -2.258572509734578793e-01 -1.124913072946200632e-01 1.208919749635809365e-01 2.207771924330450830e-01 -4.193482571104226175e-02 7.471710665059086431e-02 9.942272599021924340e-02 3.320483795201105426e-02 -1.729391390292235250e-02 -2.291562631358003976e-01 -1.166240611698515610e-02 -2.070663883974112329e-01 -2.435971223702939059e-01 1.023048235193934619e-01
2.311039311493857593e-02 5.396379131579921024e-02 -1.537660224877407666e-01 -1.643285726975122762e-01 1.187110613829107514e-01 2.558039118662249617e-02 1.294054265833424477e-01 -1.584086228129589491e-01 2.649076086241523020e-01 4.142810695457110892e-02 1.646794145536895349e-01 1.728423232768252771e-01 -1.241672292246296661e-01 2.222663478206763632e-01 9.018699945359504033e-02 -5.268147518130455315e-02 -2.509499119597288774e-03 -2.590615955998795336e-02 -2.316470638917633162e-01 9.231925501466302364e-02
9.145060450839581634e-02 5.839517302318163877e-02 -8.420601154197639160e-02 -7.717643700247223126e-02 2.585043078729720167e-01 1.931472190753546481e-01 1.463188632136701584e-01 2.081350890496209971e-01 1.753378279644039360e-03 8.339541420942706007e-02 1.810025014509818453e-01 -4.791449824508146882e-02 -4.526182569482736090e-02 -3.873126681058703530e-02 4.270387212908327741e-03 -1.193231849853281928e-01 -3.949992609657670961e-03 -1.365278653023550004e-01 1.355265034091666931e-01 3.092363729197900729e-02
1.320126233570596830e-01 -1.916483193491823056e-01 1.937601226720801761e-01 -1.343212165643778155e-01 -1.961659690106414555e-01 -2.886714764223017801e-02 6.029639798494480091e-02 2.597470541461462112e-02 1.028099273428118299e-01 -4.706313912472775279e-02 2.068103912677631551e-01 -4.507858081416848961e-02 -8.917718670107873530e-04 6.871570110413161014e-02 1.022823107698332956e-01 -9.618272341072028886e-02 2.261141238700747902e-01 -1.544349543156483262e-01 -9.582942410882205539e-03 1.900676115819227574e-01
9.910753308220159041e-02 4.943674077666589811e-02 2.961236974365156205e-01 -1.552349648469561749e-01 8.341388077130720835e-02 -1.426513031032028145e-01 1.920602752679565484e-01 -1.502939747925046143e-01 -1.199797916936022474e-01 1.818322614157601158e-01 1.521458624306394614e-01 1.408299099631190286e-02 -1.206475320861944700e-01 -1.628955875645252682e-01 -9.238227948270497092e-02 1.066910615329607070e-01 -4.432639422072406216e-02 1.412244730806788418e-01 -1.412745455632016534e-01 -1.563134013577974490e-01
-1.740360852910187717e-01 -1.017218374635701639e-01 1.730677634060751591e-01 1.880577162437024608e-01 9.904420589564094657e-02 7.618527396841314088e-03 1.006744330840369378e-01 -1.145948364351289939e-01 6.041870404644034825e-02 -2.535433629926155952e-01 2.118345702796312676e-03 -1.432503183421924772e-02 4.440621450109117491e-02 -2.663062078997998072e-01 -2.056187864083184325e-01 3.961728598511895377e-02 7.315131291178024464e-02 -2.280274155056202443e-02 -6.053295371582210344e-02 -1.536026591488938997e-01
-1.069937508610608323e-01 -8.039660760510526638e-02 2.521293765361679040e-01 1.434197513760617215e-01 -2.466480885308938997e-01 -5.480852553039992220e-02 -2.263730420453233250e-02 1.907063892142944472e-01 -1.574971708430627504e-01 2.068968030229106914e-01 -2.335241444010533185e-01 1.194658193688269282e-01 -2.637644390620478285e-01 -2.275053772331695617e-02 -3.555062738665313443e-02 -2.249841169674167696e-01 -4.299816225511807893e-02 -7.744875185552707597e-02 -5.765411678303454003e-04 -3.742117907464927173e-02
1.705432929577737622e-01 -1.125457675818429953e-01 1.686432059597724464e-01 1.098575463643314265e-01 -1.187464282904074492e-01 -2.779428137953604289e-03 8.344748365882319330e-02 -2.459738275213285141e-01 -9.422686849045552870e-02 -2.019573902855860692e-01 1.896119171773750778e-01 -1.101914437864729215e-02 2.367186001940677353e-01 1.626063735217359030e-01 -7.693944309030413542e-02 -2.140376092539918729e-01 1.039451325185718894e-01 -1.579273106249218517e-01 -8.677820356967953785e-02 -1.017882985298353415e-01
-1.622538518396825225e-01 1.675573677278615059e-01 1.713009400835819318e-01 -1.040418210463955467e-01 -5.882097857375163247e-02 1.974240554449292473e-01 1.982383656019693352e-01 -2.042023213110154001e-01 -2.820666090674907658e-02 -5.906256862136512881e-02 -1.914204630318035172e-01 1.801297323715024268e-01 -7.965208840121852651e-02 5.981613697685334019e-02 -1.028682606581686754e-01 1.668769881804452737e-01 -7.410533807664911043e-02 -7.979160283883011962e-02 -1.541466090586362803e-01 -4.505140552079450744e-02
-8.212666692545746161e-02 -4.328911870030908993e-02 8.508854515987332445e-03 -6.785507881037727840e-02 -4.767329092158176761e-03 -6.647031176499729188e-02 -9.359801740528431169e-03 2.561766405338455899e-01 7.047332365157512636e-03 -1.645506616142538778e-02 2.774843373028887950e-01 4.538680333436967418e-02 5.274212538883921164e-02 -2.102147872168570741e-01 -5.287671527902364221e-02 7.915490628200975987e-02 -1.733667096915011974e-01 -2.227332021727436717e-01 6.422771104635731365e-02 -2.446474421011934630e-01
-2.146691779406431286e-02 -6.828892689599304344e-02 1.812187481799630850e-01 1.930951319494493557e-01 4.810042956185967000e-02 9.424104767722901732e-02 3.037612607439330592e-01 -2.179891749518491351e-01 2.730517151120729347e-01 -8.385403482516867735e-02 -1.999571505713328978e-01 9.046847864813248319e-02 -1.260011885339643867e-01 -5.515996681007109652e-03 -2.591986042122377820e-01 1.681205585777609604e-02 1.940933637908681952e-01 1.322186466305335928e-01 1.840278649771965036e-01 1.461995330363183021e-01
-5.116017934006353990e-02 1.826360477787766501e-01 7.353565057288247164e-02 -8.196504034317781545e-03 2.749298476215269460e-01 2.792588314666599736e-01 2.947666215515021629e-02 1.456654056349613591e-01 -3.348171428495107516e-01 -2.345182565178179634e-01 -1.900886544089789298e-01 1.332803714204568168e-01 2.025670911972193289e-01 1.072355146320349006e-01 1.594214760710135348e-01 -2.406673959362414794e-01 1.601922044308887530e-02 -2.462021241383959280e-01 1.064568193688594094e-01 1.238271806820041426e-01
-4.602240621581441676e-02 -2.500729979624206067e-01 2.101956460069585864e-02 8.689854028819110621e-02 9.504732664344012205e-02 -2.206633587636295246e-01 -9.553591747443340720e-02 -4.724581008048191200e-02 -3.047408998351448101e-02 2.872387131938270999e-01 -2.831786055536146887e-02 -2.972636976341473947e-01 -1.591185434294285772e-01 2.078233840451600839e-02 5.536301840328683443e-02 7.165059215870886455e-02 2.984142749125627825e-01 -1.715264532324531910e-01 -7.229039356247436710e-02 -1.626023802307152433e-01
9.148086536766449062e-02 4.874971711680751302e-02 1.861900072896317260e-01 4.680585645394617911e-02 -6.820386645081528976e-02 -1.814102235407927810e-01 1.064927750651609439e-01 5.861957968196826463e-02 -1.005736785926870658e-01 -8.562461091771984834e-02 1.720454287201635957e-01 1.279988041738644444e-01 5.037496874397755925e-02 1.529156667320266116e-01 2.295652128589864838e-01 1.221060932868892612e-01 5.469170137842791629e-02 1.777444484306915373e-01 1.997453342075567462e-01 -7.675302314208701238e-02
-1.013943485578769257e-03 1.385816802854651364e-01 -1.009940996566539850e-01 2.642438007798790858e-02 -2.704446820669864204e-03 -7.214411437206320887e-02 2.055532360417886839e-01 -3.870296808587648379e-02 9.751142546734521688e-02 -2.670131102251933203e-02 1.397312688769389646e-02 -2.640906640677624928e-01 -3.607524787427865420e-02 9.376754553627011934e-02 -2.802519549319789499e-02 -1.277403781015142292e-01 2.575866814718422854e-02 -8.414089693610576903e-02 1.237564226974845610e-01 1.394169601350532528e-01
-1.301681160832908746e-01 2.219079006990465688e-02 1.424393154811412765e-01 -1.009441649846216753e-02 1.522078488822716513e-01 2.204797042670617879e-01 -1.198151279107888545e-01 -6.611396246833847051e-03 -3.609841818485206438e-02 3.268487598050712206e-02 -8.735307600905843628e-02 1.997933718481047505e-01 4.129094267028154269e-02 2.053077128676144281e-01 2.819765119435767575e-01 -2.427251052069555326e-03 -6.860326909508679405e-02 -1.389988972815270341e-01 5.880577332541007951e-02 -1.004450739100124362e-01
-1.535371226505148345e-01 1.795959313867700191e-01 6.510110107472456831e-02 1.360024257013450200e-01 2.116345351851261769e-01 -1.745411644053393441e-01 -4.657568030964835681e-02 1.450084376032591271e-01 1.414896709962930876e-01 -6.646823559751979804e-02 8.153378133068664435e-02 1.845516295737684997e-01 -6.351362153767903251e-02 5.648945627803051567e-02 -3.264353513495391740e-02 1.704535332958668006e-02 1.497322071749813688e-01 -2.830248496316837420e-02 -1.976536273619277639e-01 3.781247497211876613e-02
-2.048090797376685979e-01 4.166360468705418429e-02 -1.434284629749389972e-01 -9.785699765406508099e-02 2.251830043036003315e-01 -1.103441642009618390e-01 7.060443038098941637e-02 -1.011298659773763320e-01 -6.913044210381814880e-02 -7.745182035675142462e-02 -7.376332676926243559e-03 2.300479963259604299e-01 -1.273752663721926248e-01 4.096727441163139360e-02 -9.325766856007032535e-02 -1.237133476270554505e-01 1.023924352762160400e-01 -1.478879023936510440e-01 1.004368548159276092e-01 -1.802778608582703279e-01
3.141994622043030594e-01 -1.583364981305276269e-03 1.988028599613177738e-01 1.599040903872277763e-01 8.491861714963216956e-02 -1.351210767185675177e-01 -1.338320482116927002e-01 -1.050072893558234854e-01 1.482935418701872010e-01 -1.301520612470066784e-01 -2.353864464709256588e-01 1.044764899336997205e-01 -1.824323362452389685e-01 2.281193157819880468e-01 -1.994807292062223958e-01 -1.208001796327237559e-01 -1.283694341734692712e-01 9.833236479872763114e-02 1.917247094603925228e-01 1.006523917400202611e-01
-1.671927680683591433e-01 2.530664979137484671e-01 -1.828385692070610136e-01 -9.944589922608768062e-02 6.785412677930323377e-02 -1.261927719477703713e-01 1.909524966352576791e-01 2.322298469136014620e-01 -5.363420424691889982e-02 -6.278485946673410811e-02 5.859823935329169092e-02 -2.271923116031861756e-01 -7.048958009706345236e-03 -1.516793174618271955e-01 -1.540821219230716077e-02 6.081130886405442665e-02 1.171451216330672840e-01 1.893455330144193927e-01 4.546864780233039055e-03 -1.882757420826262906e-01
8.668662278074958094e-02 1.565992278893780232e-01 -1.932666692086019711e-01 2.188528559221667724e-01 -2.591519415573539376e-01 -3.914866031472430397e-02 -1.161206003560481120e-02 -1.535772159854793262e-01 6.725375373215999875e-02 -4.576856752365939668e-02 -1.486690016406627679e-01 -1.604202862517775108e-01 -2.214967063711257289e-01 2.357872129417208085e-01 1.568986477046805106e-01 7.383866285939112706e-02 1.343783921007953575e-01 -1.188378743404885085e-01 -1.483546974820445230e-01 1.541736391485479807e-01
-1.653062358456332537e-01 -2.102720575099054912e-01 -1.674259473094827366e-01 -2.422345481181562565e-01 6.948935880333104165e-02 -2.277018762550951925e-01 3.664042082853759263e-02 2.089599395390500103e-01 1.773687951275352281e-01 -3.949323743337298381e-02 -1.648907089836670059e-01 -1.030834572978306211e-02 1.350363129761610916e-02 3.460838109343513519e-02 -2.541281191456576383e-01 -2.886042998531852533e-01 1.518563013168387765e-01 -1.467729600339704246e-03 -2.609835382111229118e-01 9.522844367260253906e-02
-1.327475770630533736e-01 1.418629964945074262e-01 4.045760292112193790e-02 9.806775882756077478e-02 -8.298617768243913683e-04 -1.319967970271229418e-01 1.815550792398746283e-01 2.348342227990072861e-01 -1.598287256298997483e-01 -2.800427633803043159e-01 1.249625831107974983e-01 5.603678188649089537e-02 -1.539466759415494129e-02 1.961200018953691560e-01 1.160869789716515166e-01 1.437355803394030906e-01 -1.889424538417753541e-01 1.931350997013015769e-01 -1.734913802047129971e-01 -1.573181766828995742e-01
9.919067080239916956e-02 1.695322222146097846e-01 1.731625587177360037e-01 -3.895434458572501072e-04 2.233939386552327711e-01 -1.087614371700225124e-01 2.055251078938171577e-02 -1.518705901538229264e-01 2.018660964592325011e-02 1.477921397312605134e-01 -2.693315936491829099e-01 -2.279476576431413715e-01 1.062953591607955356e-01 2.520270636456181657e-01 -1.763239973442728703e-01 2.044753314130739741e-01 1.151253322739018703e-01 -2.165695737452293379e-01 -9.442498784839482850e-02 -4.754695436390968949e-02
4.159702370004179917e-02 -1.974400758532707523e-01 3.308708772303041445e-02 1.127052612494197914e-01 1.560384349056790076e-01 -1.507112511684858269e-01 1.730966256985047858e-01 2.426512436065859646e-01 -8.698376148898068205e-02 -1.341024695643960596e-01 6.069792258918294860e-03 2.522057905315056373e-02 -2.068856739765634334e-01 3.325505243966031532e-02 1.485034351341730785e-01 -5.676722039477595516e-02 -1.327355621930574603e-01 8.400934200039120170e-02 1.085172963722108308e-01 2.495095010423073745e-01
-1.413656103846598344e-01 3.940304687625383051e-02 -9.422443789828337246e-02 1.869659664284928080e-01 -1.082613763750351621e-01 -3.645282010111584176e-02 -1.162085283849395301e-01 -1.403512620383653708e-01 -1.949246022392138733e-01 -1.233052392624505583e-02 1.836185776681567849e-01 1.080802405692129348e-01 1.854151452532454558e-01 1.135977221646127938e-01 -2.338450506679141394e-01 -1.194678054703637443e-01 5.071478839303748820e-02 -2.636479064007387074e-01 -1.291731492861085406e-01 1.348783605827161836e-01
-8.627816787261667619e-02 -1.889898492469273272e-01 -2.058014982998182807e-01 1.766308176361590654e-01 1.992642695605991998e-01 -2.281149997145282271e-01 -7.840428875185578850e-02 -9.786658828005283250e-02 4.845487735172775839e-02 5.340955211454000151e-02 1.166309969699123733e-01 -6.606319226497540942e-02 1.412402739498990478e-01 -1.210370764312371783e-01 -1.733680583434460964e-01 -1.478837606248118719e-01 3.077637041209897450e-01 4.622713086586757725e-02 2.242315930049081085e-01 4.353429647720368639e-02
1.075535542847602805e-01 1.224728255414734290e-01 1.138965801033856168e-01 3.815625689811446251e-03 1.206016439431234072e-01 1.279190865029878332e-01 1.153127545739695003e-01 1.733321273642438598e-01 1.395678002341325663e-01 9.238682204137904641e-02 -9.487036224721352717e-02 1.180372041952386930e-01 1.666844025351372771e-01 2.227647626738918640e-01 -1.404260882173555547e-01 2.165220630655260436e-01 -1.850845872323989005e-01 -3.572894751894982179e-01 -8.743377816650409196e-02 -1.576310211343240689e-02
2.714343650857337642e-01 1.603946916637345732e-01 6.235888390337289422e-02 2.622127907721700235e-01 -1.356525176329914928e-01 -1.758648299112061109e-01 1.305504780764090988e-01 7.289841811818233153e-02 -7.199877211493381501e-02 3.172167152481239483e-02 -1.000200056924030190e-01 -1.129126173374429415e-01 1.674471996245010808e-01 -2.179247429437151592e-02 -4.200004416588565270e-02 1.298947858451735167e-02 7.942808632612687048e-02 1.480890339139077083e-01 9.264359420690045088e-02 -8.649527897831552070e-02
1.975116968505943038e-01 1.153072676055915263e-01 -7.293313509324911292e-02 1.070222795191872467e-01 -1.371119323428580949e-01 1.690909485886169794e-01 -1.626971254237093711e-01 -5.481725001180984269e-02 7.282231313851226379e-03 1.374932609383635873e-01 -1.037898555458629385e-01 1.394129605341523637e-01 -1.563864356951651380e-01 -1.725250163707510442e-02 7.479299243019477128e-02 1.992311950198566994e-01 1.770497316560684653e-01 -1.233324064394338143e-01 -2.752840472795212504e-02 -5.552984339548234366e-02
-2.201335414561644555e-01 -9.641287690097234686e-02 6.431654756418683783e-02 1.923589019362302033e-01 1.565488771372892385e-01 -2.022984535696246422e-01 2.323507935278228131e-01 1.338467533354572858e-01 -2.831672021307905796e-02 1.975341183824246838e-01 -3.555679641321731616e-02 -1.671764258105080669e-01 -2.252749402956915059e-01 -1.873228958852108939e-01 2.314253683633187564e-01 9.592053872994181496e-02 1.402261874855342816e-01 -1.197428368592869524e-01 -1.299381722318292132e-01 1.035754600861181901e-01
1.531310510450260287e-01 -1.154000814258027974e-01 -2.097802067191936737e-02 2.053197730473966531e-01 -1.112280898509755284e-01 1.030590080741736608e-01 -1.208418798528456545e-01 8.009445743586773858e-02 3.033262792793509077e-01 -2.075694020395532358e-01 3.053893334757162847e-02 1.445176340097900081e-01 8.251508760059333980e-02 5.455045409065448214e-02 -2.933540616287714370e-02 -2.040679140645249856e-01 1.343268181548621931e-01 -1.940114488234375434e-01 -2.379288972552718595e-01 -1.795378517589323597e-01
-8.287904446698575456e-02 -9.397536362421915479e-02 -1.248890485851119059e-01 -7.707871426721328578e-02 -1.214027535625046422e-01 -3.088315692044449681e-02 3.053290930876035314e-01 4.762353952478318164e-02 -1.077156022753727321e-01 -1.990659940310826326e-01 -2.035242434293490221e-01 6.219377708140036085e-03 5.399166832669152760e-02 -1.692172083031820706e-01 1.935086389101909887e-01 -1.604172543138514262e-01 1.317634267237877133e-01 -8.996303119765111656e-02 4.913598609937419072e-03 -1.214902713838149351e-01
1.625730016629535479e-01 3.343095297044403058e-02 5.717227620888151729e-02 -1.877279739097908740e-01 -5.598861526756074292e-02 1.269688559688048335e-01 1.711704379234008089e-01 1.004258679975778001e-01 1.891503881445075752e-01 3.161243760383151274e-02 -2.072849167454285102e-01 8.163975332834089160e-02 8.555115103875403360e-02 2.376034251137676967e-01 -2.199170987888336148e-01 1.816602757090003406e-01 7.166423885772912374e-03 -6.282125784108780892e-03 -6.523092271749679483e-02 -2.561777808125075273e-01
-1.622108529188948101e-01 1.384965844414366709e-01 -2.073028827746850600e-02 3.148693200272663639e-01 7.245240984515642635e-02 1.771437961600001720e-01 -1.984631091400759426e-02 -4.876107529450467160e-02 1.043870125030241930e-01 9.774826677871846503e-02 -1.198024254275630723e-01 -1.050140889922542980e-01 1.404539629635097875e-01 -1.410877974889361008e-01 3.131902934457519300e-02 -7.049594390097953245e-02 -3.112758804727306858e-02 5.538335825741276530e-02 -2.476255230795324225e-01 2.127045426624401825e-01
